<?xml version="1.0"?>
<!-- DTD for the XMLBIF 0.3 format -->
<!DOCTYPE BIF [
	<!ELEMENT BIF ( NETWORK )*>
	      <!ATTLIST BIF VERSION CDATA #REQUIRED>
	<!ELEMENT NETWORK ( NAME, ( PROPERTY | VARIABLE | DEFINITION )* )>
	<!ELEMENT NAME (#PCDATA)>
	<!ELEMENT VARIABLE ( NAME, ( OUTCOME |  PROPERTY )* ) >
	      <!ATTLIST VARIABLE TYPE (nature|decision|utility) "nature">
	<!ELEMENT OUTCOME (#PCDATA)>
	<!ELEMENT DEFINITION ( FOR | GIVEN | TABLE | PROPERTY )* >
	<!ELEMENT FOR (#PCDATA)>
	<!ELEMENT GIVEN (#PCDATA)>
	<!ELEMENT TABLE (#PCDATA)>
	<!ELEMENT PROPERTY (#PCDATA)>
]>


<BIF VERSION="0.3">
<NETWORK>
<NAME>autos-weka.filters.unsupervised.attribute.ReplaceMissingValues-weka.filters.supervised.attribute.Discretize-Rfirst-last</NAME>
<VARIABLE TYPE="nature">
<NAME>normalized-losses</NAME>
<OUTCOME>&apos;(-inf-75.5]&apos;</OUTCOME>
<OUTCOME>&apos;(75.5-92]&apos;</OUTCOME>
<OUTCOME>&apos;(92-96.5]&apos;</OUTCOME>
<OUTCOME>&apos;(96.5-inf)&apos;</OUTCOME>
</VARIABLE>
<VARIABLE TYPE="nature">
<NAME>make</NAME>
<OUTCOME>alfa-romero</OUTCOME>
<OUTCOME>audi</OUTCOME>
<OUTCOME>bmw</OUTCOME>
<OUTCOME>chevrolet</OUTCOME>
<OUTCOME>dodge</OUTCOME>
<OUTCOME>honda</OUTCOME>
<OUTCOME>isuzu</OUTCOME>
<OUTCOME>jaguar</OUTCOME>
<OUTCOME>mazda</OUTCOME>
<OUTCOME>mercedes-benz</OUTCOME>
<OUTCOME>mercury</OUTCOME>
<OUTCOME>mitsubishi</OUTCOME>
<OUTCOME>nissan</OUTCOME>
<OUTCOME>peugot</OUTCOME>
<OUTCOME>plymouth</OUTCOME>
<OUTCOME>porsche</OUTCOME>
<OUTCOME>renault</OUTCOME>
<OUTCOME>saab</OUTCOME>
<OUTCOME>subaru</OUTCOME>
<OUTCOME>toyota</OUTCOME>
<OUTCOME>volkswagen</OUTCOME>
<OUTCOME>volvo</OUTCOME>
</VARIABLE>
<VARIABLE TYPE="nature">
<NAME>fuel-type</NAME>
<OUTCOME>diesel</OUTCOME>
<OUTCOME>gas</OUTCOME>
</VARIABLE>
<VARIABLE TYPE="nature">
<NAME>aspiration</NAME>
<OUTCOME>std</OUTCOME>
<OUTCOME>turbo</OUTCOME>
</VARIABLE>
<VARIABLE TYPE="nature">
<NAME>num-of-doors</NAME>
<OUTCOME>four</OUTCOME>
<OUTCOME>two</OUTCOME>
</VARIABLE>
<VARIABLE TYPE="nature">
<NAME>body-style</NAME>
<OUTCOME>hardtop</OUTCOME>
<OUTCOME>wagon</OUTCOME>
<OUTCOME>sedan</OUTCOME>
<OUTCOME>hatchback</OUTCOME>
<OUTCOME>convertible</OUTCOME>
</VARIABLE>
<VARIABLE TYPE="nature">
<NAME>drive-wheels</NAME>
<OUTCOME>4wd</OUTCOME>
<OUTCOME>fwd</OUTCOME>
<OUTCOME>rwd</OUTCOME>
</VARIABLE>
<VARIABLE TYPE="nature">
<NAME>engine-location</NAME>
<OUTCOME>front</OUTCOME>
<OUTCOME>rear</OUTCOME>
</VARIABLE>
<VARIABLE TYPE="nature">
<NAME>wheel-base</NAME>
<OUTCOME>&apos;(-inf-88.5]&apos;</OUTCOME>
<OUTCOME>&apos;(88.5-92.15]&apos;</OUTCOME>
<OUTCOME>&apos;(92.15-95.2]&apos;</OUTCOME>
<OUTCOME>&apos;(95.2-95.5]&apos;</OUTCOME>
<OUTCOME>&apos;(95.5-97.25]&apos;</OUTCOME>
<OUTCOME>&apos;(97.25-100.1]&apos;</OUTCOME>
<OUTCOME>&apos;(100.1-inf)&apos;</OUTCOME>
</VARIABLE>
<VARIABLE TYPE="nature">
<NAME>length</NAME>
<OUTCOME>&apos;(-inf-168.75]&apos;</OUTCOME>
<OUTCOME>&apos;(168.75-169.05]&apos;</OUTCOME>
<OUTCOME>&apos;(169.05-172.8]&apos;</OUTCOME>
<OUTCOME>&apos;(172.8-173.3]&apos;</OUTCOME>
<OUTCOME>&apos;(173.3-175.5]&apos;</OUTCOME>
<OUTCOME>&apos;(175.5-175.65]&apos;</OUTCOME>
<OUTCOME>&apos;(175.65-177.55]&apos;</OUTCOME>
<OUTCOME>&apos;(177.55-179.35]&apos;</OUTCOME>
<OUTCOME>&apos;(179.35-187.65]&apos;</OUTCOME>
<OUTCOME>&apos;(187.65-188.9]&apos;</OUTCOME>
<OUTCOME>&apos;(188.9-inf)&apos;</OUTCOME>
</VARIABLE>
<VARIABLE TYPE="nature">
<NAME>width</NAME>
<OUTCOME>&apos;(-inf-64.3]&apos;</OUTCOME>
<OUTCOME>&apos;(64.3-66.75]&apos;</OUTCOME>
<OUTCOME>&apos;(66.75-inf)&apos;</OUTCOME>
</VARIABLE>
<VARIABLE TYPE="nature">
<NAME>height</NAME>
<OUTCOME>&apos;(-inf-50.35]&apos;</OUTCOME>
<OUTCOME>&apos;(50.35-52.45]&apos;</OUTCOME>
<OUTCOME>&apos;(52.45-54.85]&apos;</OUTCOME>
<OUTCOME>&apos;(54.85-55.55]&apos;</OUTCOME>
<OUTCOME>&apos;(55.55-56.15]&apos;</OUTCOME>
<OUTCOME>&apos;(56.15-56.25]&apos;</OUTCOME>
<OUTCOME>&apos;(56.25-inf)&apos;</OUTCOME>
</VARIABLE>
<VARIABLE TYPE="nature">
<NAME>curb-weight</NAME>
<OUTCOME>&apos;(-inf-2216.5]&apos;</OUTCOME>
<OUTCOME>&apos;(2216.5-inf)&apos;</OUTCOME>
</VARIABLE>
<VARIABLE TYPE="nature">
<NAME>engine-type</NAME>
<OUTCOME>dohc</OUTCOME>
<OUTCOME>dohcv</OUTCOME>
<OUTCOME>l</OUTCOME>
<OUTCOME>ohc</OUTCOME>
<OUTCOME>ohcf</OUTCOME>
<OUTCOME>ohcv</OUTCOME>
<OUTCOME>rotor</OUTCOME>
</VARIABLE>
<VARIABLE TYPE="nature">
<NAME>num-of-cylinders</NAME>
<OUTCOME>eight</OUTCOME>
<OUTCOME>five</OUTCOME>
<OUTCOME>four</OUTCOME>
<OUTCOME>six</OUTCOME>
<OUTCOME>three</OUTCOME>
<OUTCOME>twelve</OUTCOME>
<OUTCOME>two</OUTCOME>
</VARIABLE>
<VARIABLE TYPE="nature">
<NAME>engine-size</NAME>
<OUTCOME>&apos;(-inf-85]&apos;</OUTCOME>
<OUTCOME>&apos;(85-105.5]&apos;</OUTCOME>
<OUTCOME>&apos;(105.5-inf)&apos;</OUTCOME>
</VARIABLE>
<VARIABLE TYPE="nature">
<NAME>fuel-system</NAME>
<OUTCOME>1bbl</OUTCOME>
<OUTCOME>2bbl</OUTCOME>
<OUTCOME>4bbl</OUTCOME>
<OUTCOME>idi</OUTCOME>
<OUTCOME>mfi</OUTCOME>
<OUTCOME>mpfi</OUTCOME>
<OUTCOME>spdi</OUTCOME>
<OUTCOME>spfi</OUTCOME>
</VARIABLE>
<VARIABLE TYPE="nature">
<NAME>bore</NAME>
<OUTCOME>&apos;(-inf-3.255]&apos;</OUTCOME>
<OUTCOME>&apos;(3.255-inf)&apos;</OUTCOME>
</VARIABLE>
<VARIABLE TYPE="nature">
<NAME>stroke</NAME>
<OUTCOME>&apos;All&apos;</OUTCOME>
</VARIABLE>
<VARIABLE TYPE="nature">
<NAME>compression-ratio</NAME>
<OUTCOME>&apos;All&apos;</OUTCOME>
</VARIABLE>
<VARIABLE TYPE="nature">
<NAME>horsepower</NAME>
<OUTCOME>&apos;(-inf-87]&apos;</OUTCOME>
<OUTCOME>&apos;(87-inf)&apos;</OUTCOME>
</VARIABLE>
<VARIABLE TYPE="nature">
<NAME>peak-rpm</NAME>
<OUTCOME>&apos;All&apos;</OUTCOME>
</VARIABLE>
<VARIABLE TYPE="nature">
<NAME>city-mpg</NAME>
<OUTCOME>&apos;(-inf-30.5]&apos;</OUTCOME>
<OUTCOME>&apos;(30.5-inf)&apos;</OUTCOME>
</VARIABLE>
<VARIABLE TYPE="nature">
<NAME>highway-mpg</NAME>
<OUTCOME>&apos;(-inf-29.5]&apos;</OUTCOME>
<OUTCOME>&apos;(29.5-inf)&apos;</OUTCOME>
</VARIABLE>
<VARIABLE TYPE="nature">
<NAME>price</NAME>
<OUTCOME>&apos;(-inf-8497]&apos;</OUTCOME>
<OUTCOME>&apos;(8497-inf)&apos;</OUTCOME>
</VARIABLE>
<VARIABLE TYPE="nature">
<NAME>symboling</NAME>
<OUTCOME>-3</OUTCOME>
<OUTCOME>-2</OUTCOME>
<OUTCOME>-1</OUTCOME>
<OUTCOME>0</OUTCOME>
<OUTCOME>1</OUTCOME>
<OUTCOME>2</OUTCOME>
<OUTCOME>3</OUTCOME>
</VARIABLE>
<DEFINITION>
<FOR>normalized-losses</FOR>
<GIVEN>make</GIVEN>
<GIVEN>symboling</GIVEN>
<TABLE>
0.25 0.25 0.25 0.25 
0.25 0.25 0.25 0.25 
0.25 0.25 0.25 0.25 
0.25 0.25 0.25 0.25 
0.2 0.2 0.2 0.4 
0.25 0.25 0.25 0.25 
0.16666666666666666 0.16666666666666666 0.16666666666666666 0.5 
0.25 0.25 0.25 0.25 
0.25 0.25 0.25 0.25 
0.25 0.25 0.25 0.25 
0.2 0.2 0.2 0.4 
0.14285714285714285 0.14285714285714285 0.14285714285714285 0.5714285714285714 
0.14285714285714285 0.14285714285714285 0.14285714285714285 0.5714285714285714 
0.25 0.25 0.25 0.25 
0.25 0.25 0.25 0.25 
0.25 0.25 0.25 0.25 
0.25 0.25 0.25 0.25 
0.1 0.1 0.1 0.7 
0.2 0.2 0.2 0.4 
0.2 0.2 0.2 0.4 
0.25 0.25 0.25 0.25 
0.25 0.25 0.25 0.25 
0.25 0.25 0.25 0.25 
0.25 0.25 0.25 0.25 
0.2 0.4 0.2 0.2 
0.2 0.2 0.2 0.4 
0.2 0.2 0.2 0.4 
0.25 0.25 0.25 0.25 
0.25 0.25 0.25 0.25 
0.25 0.25 0.25 0.25 
0.2 0.2 0.2 0.4 
0.25 0.25 0.25 0.25 
0.09090909090909091 0.09090909090909091 0.09090909090909091 0.7272727272727273 
0.25 0.25 0.25 0.25 
0.2 0.2 0.2 0.4 
0.25 0.25 0.25 0.25 
0.25 0.25 0.25 0.25 
0.25 0.25 0.25 0.25 
0.09090909090909091 0.45454545454545453 0.09090909090909091 0.36363636363636365 
0.125 0.125 0.125 0.625 
0.16666666666666666 0.16666666666666666 0.16666666666666666 0.5 
0.25 0.25 0.25 0.25 
0.25 0.25 0.25 0.25 
0.25 0.25 0.25 0.25 
0.25 0.25 0.25 0.25 
0.16666666666666666 0.16666666666666666 0.16666666666666666 0.5 
0.2 0.2 0.2 0.4 
0.2 0.2 0.2 0.4 
0.25 0.25 0.25 0.25 
0.25 0.25 0.25 0.25 
0.25 0.25 0.25 0.25 
0.25 0.25 0.25 0.25 
0.14285714285714285 0.14285714285714285 0.14285714285714285 0.5714285714285714 
0.25 0.25 0.25 0.25 
0.25 0.25 0.25 0.25 
0.25 0.25 0.25 0.25 
0.25 0.25 0.25 0.25 
0.25 0.25 0.25 0.25 
0.25 0.25 0.25 0.25 
0.1 0.1 0.1 0.7 
0.09090909090909091 0.09090909090909091 0.09090909090909091 0.7272727272727273 
0.25 0.25 0.25 0.25 
0.125 0.125 0.125 0.625 
0.25 0.25 0.25 0.25 
0.25 0.25 0.25 0.25 
0.125 0.125 0.5 0.25 
0.16666666666666666 0.16666666666666666 0.3333333333333333 0.3333333333333333 
0.2 0.2 0.2 0.4 
0.25 0.25 0.25 0.25 
0.2 0.2 0.2 0.4 
0.25 0.25 0.25 0.25 
0.25 0.25 0.25 0.25 
0.25 0.25 0.25 0.25 
0.25 0.25 0.25 0.25 
0.2 0.2 0.2 0.4 
0.25 0.25 0.25 0.25 
0.25 0.25 0.25 0.25 
0.25 0.25 0.25 0.25 
0.25 0.25 0.25 0.25 
0.2 0.2 0.2 0.4 
0.25 0.25 0.25 0.25 
0.125 0.125 0.125 0.625 
0.14285714285714285 0.14285714285714285 0.14285714285714285 0.5714285714285714 
0.1111111111111111 0.1111111111111111 0.1111111111111111 0.6666666666666666 
0.25 0.25 0.25 0.25 
0.25 0.25 0.25 0.25 
0.25 0.25 0.25 0.25 
0.1111111111111111 0.1111111111111111 0.1111111111111111 0.6666666666666666 
0.07142857142857142 0.07142857142857142 0.07142857142857142 0.7857142857142857 
0.2 0.2 0.2 0.4 
0.16666666666666666 0.16666666666666666 0.16666666666666666 0.5 
0.25 0.25 0.25 0.25 
0.25 0.25 0.25 0.25 
0.25 0.25 0.25 0.25 
0.06666666666666667 0.06666666666666667 0.06666666666666667 0.8 
0.25 0.25 0.25 0.25 
0.25 0.25 0.25 0.25 
0.25 0.25 0.25 0.25 
0.25 0.25 0.25 0.25 
0.25 0.25 0.25 0.25 
0.4 0.2 0.2 0.2 
0.25 0.25 0.25 0.25 
0.1111111111111111 0.1111111111111111 0.1111111111111111 0.6666666666666666 
0.25 0.25 0.25 0.25 
0.2 0.2 0.2 0.4 
0.25 0.25 0.25 0.25 
0.25 0.25 0.25 0.25 
0.25 0.25 0.25 0.25 
0.25 0.25 0.25 0.25 
0.2 0.2 0.2 0.4 
0.25 0.25 0.25 0.25 
0.125 0.125 0.125 0.625 
0.25 0.25 0.25 0.25 
0.25 0.25 0.25 0.25 
0.25 0.25 0.25 0.25 
0.2 0.2 0.2 0.4 
0.25 0.25 0.25 0.25 
0.2 0.2 0.2 0.4 
0.25 0.25 0.25 0.25 
0.25 0.25 0.25 0.25 
0.25 0.25 0.25 0.25 
0.25 0.25 0.25 0.25 
0.25 0.25 0.25 0.25 
0.25 0.25 0.25 0.25 
0.14285714285714285 0.14285714285714285 0.14285714285714285 0.5714285714285714 
0.14285714285714285 0.14285714285714285 0.14285714285714285 0.5714285714285714 
0.25 0.25 0.25 0.25 
0.25 0.25 0.25 0.25 
0.25 0.25 0.25 0.25 
0.07692307692307693 0.38461538461538464 0.07692307692307693 0.46153846153846156 
0.25 0.25 0.25 0.25 
0.14285714285714285 0.5714285714285714 0.14285714285714285 0.14285714285714285 
0.25 0.25 0.25 0.25 
0.25 0.25 0.25 0.25 
0.25 0.25 0.25 0.25 
0.5454545454545454 0.18181818181818182 0.09090909090909091 0.18181818181818182 
0.07142857142857142 0.7857142857142857 0.07142857142857142 0.07142857142857142 
0.18181818181818182 0.2727272727272727 0.09090909090909091 0.45454545454545453 
0.1 0.1 0.1 0.7 
0.16666666666666666 0.16666666666666666 0.16666666666666666 0.5 
0.25 0.25 0.25 0.25 
0.25 0.25 0.25 0.25 
0.25 0.25 0.25 0.25 
0.14285714285714285 0.14285714285714285 0.14285714285714285 0.5714285714285714 
0.25 0.25 0.25 0.25 
0.09090909090909091 0.09090909090909091 0.5454545454545454 0.2727272727272727 
0.16666666666666666 0.16666666666666666 0.16666666666666666 0.5 
0.25 0.25 0.25 0.25 
0.14285714285714285 0.14285714285714285 0.14285714285714285 0.5714285714285714 
0.3333333333333333 0.08333333333333333 0.5 0.08333333333333333 
0.25 0.25 0.25 0.25 
0.25 0.25 0.25 0.25 
0.25 0.25 0.25 0.25 
0.25 0.25 0.25 0.25 
</TABLE>
</DEFINITION>
<DEFINITION>
<FOR>make</FOR>
<GIVEN>height</GIVEN>
<GIVEN>drive-wheels</GIVEN>
<TABLE>
0.045454545454545456 0.045454545454545456 0.045454545454545456 0.045454545454545456 0.045454545454545456 0.045454545454545456 0.045454545454545456 0.045454545454545456 0.045454545454545456 0.045454545454545456 0.045454545454545456 0.045454545454545456 0.045454545454545456 0.045454545454545456 0.045454545454545456 0.045454545454545456 0.045454545454545456 0.045454545454545456 0.045454545454545456 0.045454545454545456 0.045454545454545456 0.045454545454545456 
0.03571428571428571 0.03571428571428571 0.03571428571428571 0.03571428571428571 0.07142857142857142 0.03571428571428571 0.03571428571428571 0.03571428571428571 0.03571428571428571 0.03571428571428571 0.03571428571428571 0.21428571428571427 0.03571428571428571 0.03571428571428571 0.03571428571428571 0.03571428571428571 0.03571428571428571 0.03571428571428571 0.03571428571428571 0.03571428571428571 0.03571428571428571 0.03571428571428571 
0.08823529411764706 0.029411764705882353 0.029411764705882353 0.029411764705882353 0.029411764705882353 0.029411764705882353 0.029411764705882353 0.058823529411764705 0.14705882352941177 0.029411764705882353 0.029411764705882353 0.029411764705882353 0.11764705882352941 0.029411764705882353 0.058823529411764705 0.058823529411764705 0.029411764705882353 0.029411764705882353 0.029411764705882353 0.029411764705882353 0.029411764705882353 0.029411764705882353 
0.043478260869565216 0.08695652173913043 0.043478260869565216 0.043478260869565216 0.043478260869565216 0.043478260869565216 0.043478260869565216 0.043478260869565216 0.043478260869565216 0.043478260869565216 0.043478260869565216 0.043478260869565216 0.043478260869565216 0.043478260869565216 0.043478260869565216 0.043478260869565216 0.043478260869565216 0.043478260869565216 0.043478260869565216 0.043478260869565216 0.043478260869565216 0.043478260869565216 
0.0196078431372549 0.0196078431372549 0.0196078431372549 0.058823529411764705 0.1568627450980392 0.0784313725490196 0.058823529411764705 0.0196078431372549 0.0196078431372549 0.0196078431372549 0.0196078431372549 0.17647058823529413 0.0196078431372549 0.0196078431372549 0.11764705882352941 0.0196078431372549 0.0392156862745098 0.0196078431372549 0.0196078431372549 0.0196078431372549 0.0392156862745098 0.0196078431372549 
0.05555555555555555 0.027777777777777776 0.027777777777777776 0.027777777777777776 0.027777777777777776 0.027777777777777776 0.05555555555555555 0.027777777777777776 0.027777777777777776 0.05555555555555555 0.027777777777777776 0.027777777777777776 0.027777777777777776 0.027777777777777776 0.027777777777777776 0.1388888888888889 0.027777777777777776 0.027777777777777776 0.027777777777777776 0.2222222222222222 0.027777777777777776 0.027777777777777776 
0.04 0.08 0.04 0.04 0.04 0.04 0.04 0.04 0.04 0.04 0.04 0.04 0.04 0.04 0.04 0.04 0.04 0.04 0.12 0.04 0.04 0.04 
0.013888888888888888 0.041666666666666664 0.013888888888888888 0.027777777777777776 0.013888888888888888 0.1388888888888889 0.013888888888888888 0.013888888888888888 0.1111111111111111 0.013888888888888888 0.013888888888888888 0.013888888888888888 0.18055555555555555 0.013888888888888888 0.013888888888888888 0.013888888888888888 0.013888888888888888 0.013888888888888888 0.1111111111111111 0.18055555555555555 0.013888888888888888 0.013888888888888888 
0.025 0.025 0.15 0.025 0.025 0.025 0.05 0.075 0.075 0.025 0.05 0.025 0.025 0.025 0.025 0.025 0.025 0.025 0.025 0.2 0.025 0.025 
0.041666666666666664 0.041666666666666664 0.041666666666666664 0.041666666666666664 0.041666666666666664 0.041666666666666664 0.041666666666666664 0.041666666666666664 0.041666666666666664 0.041666666666666664 0.041666666666666664 0.041666666666666664 0.041666666666666664 0.041666666666666664 0.041666666666666664 0.041666666666666664 0.041666666666666664 0.041666666666666664 0.125 0.041666666666666664 0.041666666666666664 0.041666666666666664 
0.02857142857142857 0.02857142857142857 0.02857142857142857 0.02857142857142857 0.02857142857142857 0.02857142857142857 0.02857142857142857 0.02857142857142857 0.14285714285714285 0.02857142857142857 0.02857142857142857 0.02857142857142857 0.08571428571428572 0.02857142857142857 0.02857142857142857 0.02857142857142857 0.05714285714285714 0.02857142857142857 0.02857142857142857 0.11428571428571428 0.11428571428571428 0.02857142857142857 
0.034482758620689655 0.034482758620689655 0.034482758620689655 0.034482758620689655 0.034482758620689655 0.034482758620689655 0.034482758620689655 0.034482758620689655 0.034482758620689655 0.10344827586206896 0.034482758620689655 0.034482758620689655 0.034482758620689655 0.034482758620689655 0.034482758620689655 0.034482758620689655 0.034482758620689655 0.034482758620689655 0.034482758620689655 0.034482758620689655 0.034482758620689655 0.20689655172413793 
0.043478260869565216 0.043478260869565216 0.043478260869565216 0.043478260869565216 0.043478260869565216 0.043478260869565216 0.043478260869565216 0.043478260869565216 0.043478260869565216 0.043478260869565216 0.043478260869565216 0.043478260869565216 0.043478260869565216 0.043478260869565216 0.043478260869565216 0.043478260869565216 0.043478260869565216 0.043478260869565216 0.08695652173913043 0.043478260869565216 0.043478260869565216 0.043478260869565216 
0.025 0.1 0.025 0.025 0.025 0.025 0.025 0.025 0.025 0.025 0.025 0.025 0.05 0.025 0.025 0.025 0.025 0.175 0.025 0.025 0.225 0.025 
0.04 0.04 0.12 0.04 0.04 0.04 0.04 0.04 0.04 0.04 0.04 0.04 0.04 0.08 0.04 0.04 0.04 0.04 0.04 0.04 0.04 0.04 
0.045454545454545456 0.045454545454545456 0.045454545454545456 0.045454545454545456 0.045454545454545456 0.045454545454545456 0.045454545454545456 0.045454545454545456 0.045454545454545456 0.045454545454545456 0.045454545454545456 0.045454545454545456 0.045454545454545456 0.045454545454545456 0.045454545454545456 0.045454545454545456 0.045454545454545456 0.045454545454545456 0.045454545454545456 0.045454545454545456 0.045454545454545456 0.045454545454545456 
0.045454545454545456 0.045454545454545456 0.045454545454545456 0.045454545454545456 0.045454545454545456 0.045454545454545456 0.045454545454545456 0.045454545454545456 0.045454545454545456 0.045454545454545456 0.045454545454545456 0.045454545454545456 0.045454545454545456 0.045454545454545456 0.045454545454545456 0.045454545454545456 0.045454545454545456 0.045454545454545456 0.045454545454545456 0.045454545454545456 0.045454545454545456 0.045454545454545456 
0.04 0.04 0.04 0.04 0.04 0.04 0.04 0.04 0.04 0.04 0.04 0.04 0.04 0.04 0.04 0.04 0.04 0.04 0.04 0.04 0.04 0.16 
0.041666666666666664 0.041666666666666664 0.041666666666666664 0.041666666666666664 0.041666666666666664 0.041666666666666664 0.041666666666666664 0.041666666666666664 0.041666666666666664 0.041666666666666664 0.041666666666666664 0.041666666666666664 0.041666666666666664 0.041666666666666664 0.041666666666666664 0.041666666666666664 0.041666666666666664 0.041666666666666664 0.041666666666666664 0.125 0.041666666666666664 0.041666666666666664 
0.038461538461538464 0.038461538461538464 0.038461538461538464 0.038461538461538464 0.07692307692307693 0.07692307692307693 0.038461538461538464 0.038461538461538464 0.038461538461538464 0.038461538461538464 0.038461538461538464 0.038461538461538464 0.038461538461538464 0.038461538461538464 0.07692307692307693 0.038461538461538464 0.038461538461538464 0.038461538461538464 0.038461538461538464 0.07692307692307693 0.038461538461538464 0.038461538461538464 
0.024390243902439025 0.024390243902439025 0.04878048780487805 0.024390243902439025 0.024390243902439025 0.024390243902439025 0.024390243902439025 0.024390243902439025 0.024390243902439025 0.14634146341463414 0.024390243902439025 0.024390243902439025 0.024390243902439025 0.2682926829268293 0.024390243902439025 0.024390243902439025 0.024390243902439025 0.024390243902439025 0.024390243902439025 0.024390243902439025 0.024390243902439025 0.0975609756097561 
</TABLE>
</DEFINITION>
<DEFINITION>
<FOR>fuel-type</FOR>
<GIVEN>fuel-system</GIVEN>
<TABLE>
0.07692307692307693 0.9230769230769231 
0.014705882352941176 0.9852941176470589 
0.2 0.8 
0.9545454545454546 0.045454545454545456 
0.3333333333333333 0.6666666666666666 
0.010416666666666666 0.9895833333333334 
0.09090909090909091 0.9090909090909091 
0.3333333333333333 0.6666666666666666 
</TABLE>
</DEFINITION>
<DEFINITION>
<FOR>aspiration</FOR>
<GIVEN>fuel-system</GIVEN>
<GIVEN>make</GIVEN>
<TABLE>
0.5 0.5 
0.5 0.5 
0.5 0.5 
0.5 0.5 
0.5 0.5 
0.9230769230769231 0.07692307692307693 
0.5 0.5 
0.5 0.5 
0.5 0.5 
0.5 0.5 
0.5 0.5 
0.5 0.5 
0.5 0.5 
0.5 0.5 
0.5 0.5 
0.5 0.5 
0.5 0.5 
0.5 0.5 
0.5 0.5 
0.5 0.5 
0.5 0.5 
0.5 0.5 
0.5 0.5 
0.5 0.5 
0.5 0.5 
0.8 0.2 
0.875 0.125 
0.6666666666666666 0.3333333333333333 
0.8 0.2 
0.5 0.5 
0.9166666666666666 0.08333333333333333 
0.5 0.5 
0.5 0.5 
0.875 0.125 
0.9230769230769231 0.07692307692307693 
0.5 0.5 
0.8571428571428571 0.14285714285714285 
0.5 0.5 
0.5 0.5 
0.5 0.5 
0.9 0.1 
0.9333333333333333 0.06666666666666667 
0.5 0.5 
0.5 0.5 
0.5 0.5 
0.5 0.5 
0.5 0.5 
0.5 0.5 
0.5 0.5 
0.5 0.5 
0.5 0.5 
0.5 0.5 
0.8 0.2 
0.5 0.5 
0.5 0.5 
0.5 0.5 
0.5 0.5 
0.5 0.5 
0.5 0.5 
0.5 0.5 
0.5 0.5 
0.5 0.5 
0.5 0.5 
0.5 0.5 
0.5 0.5 
0.5 0.5 
0.5 0.5 
0.5 0.5 
0.5 0.5 
0.5 0.5 
0.5 0.5 
0.5 0.5 
0.5 0.5 
0.5 0.5 
0.75 0.25 
0.16666666666666666 0.8333333333333334 
0.5 0.5 
0.5 0.5 
0.6666666666666666 0.3333333333333333 
0.14285714285714285 0.8571428571428571 
0.5 0.5 
0.5 0.5 
0.5 0.5 
0.5 0.5 
0.5 0.5 
0.6 0.4 
0.5 0.5 
0.3333333333333333 0.6666666666666666 
0.5 0.5 
0.5 0.5 
0.5 0.5 
0.5 0.5 
0.3333333333333333 0.6666666666666666 
0.5 0.5 
0.5 0.5 
0.5 0.5 
0.5 0.5 
0.5 0.5 
0.5 0.5 
0.5 0.5 
0.5 0.5 
0.5 0.5 
0.5 0.5 
0.5 0.5 
0.5 0.5 
0.5 0.5 
0.5 0.5 
0.5 0.5 
0.5 0.5 
0.5 0.5 
0.8 0.2 
0.6666666666666666 0.3333333333333333 
0.9 0.1 
0.5 0.5 
0.25 0.75 
0.6666666666666666 0.3333333333333333 
0.5 0.5 
0.8 0.2 
0.75 0.25 
0.8333333333333334 0.16666666666666666 
0.3333333333333333 0.6666666666666666 
0.5 0.5 
0.75 0.25 
0.75 0.25 
0.5 0.5 
0.8571428571428571 0.14285714285714285 
0.75 0.25 
0.625 0.375 
0.5 0.5 
0.9444444444444444 0.05555555555555555 
0.9 0.1 
0.5833333333333334 0.4166666666666667 
0.5 0.5 
0.5 0.5 
0.5 0.5 
0.5 0.5 
0.5 0.5 
0.5 0.5 
0.5 0.5 
0.5 0.5 
0.5 0.5 
0.5 0.5 
0.5 0.5 
0.2222222222222222 0.7777777777777778 
0.5 0.5 
0.5 0.5 
0.25 0.75 
0.5 0.5 
0.5 0.5 
0.5 0.5 
0.5 0.5 
0.5 0.5 
0.5 0.5 
0.5 0.5 
0.5 0.5 
0.5 0.5 
0.5 0.5 
0.5 0.5 
0.5 0.5 
0.5 0.5 
0.6666666666666666 0.3333333333333333 
0.5 0.5 
0.5 0.5 
0.5 0.5 
0.5 0.5 
0.5 0.5 
0.5 0.5 
0.5 0.5 
0.5 0.5 
0.5 0.5 
0.5 0.5 
0.5 0.5 
0.5 0.5 
0.5 0.5 
0.5 0.5 
0.5 0.5 
</TABLE>
</DEFINITION>
<DEFINITION>
<FOR>num-of-doors</FOR>
<GIVEN>symboling</GIVEN>
<GIVEN>make</GIVEN>
<TABLE>
0.5 0.5 
0.5 0.5 
0.5 0.5 
0.5 0.5 
0.5 0.5 
0.5 0.5 
0.5 0.5 
0.5 0.5 
0.5 0.5 
0.5 0.5 
0.5 0.5 
0.5 0.5 
0.5 0.5 
0.5 0.5 
0.5 0.5 
0.5 0.5 
0.5 0.5 
0.5 0.5 
0.5 0.5 
0.5 0.5 
0.5 0.5 
0.5 0.5 
0.5 0.5 
0.5 0.5 
0.5 0.5 
0.5 0.5 
0.5 0.5 
0.5 0.5 
0.5 0.5 
0.5 0.5 
0.5 0.5 
0.5 0.5 
0.5 0.5 
0.5 0.5 
0.5 0.5 
0.5 0.5 
0.5 0.5 
0.5 0.5 
0.5 0.5 
0.5 0.5 
0.5 0.5 
0.5 0.5 
0.5 0.5 
0.8 0.2 
0.5 0.5 
0.5 0.5 
0.5 0.5 
0.5 0.5 
0.6666666666666666 0.3333333333333333 
0.5 0.5 
0.5 0.5 
0.5 0.5 
0.5 0.5 
0.8333333333333334 0.16666666666666666 
0.5 0.5 
0.6666666666666666 0.3333333333333333 
0.5 0.5 
0.5 0.5 
0.6666666666666666 0.3333333333333333 
0.5 0.5 
0.5 0.5 
0.5 0.5 
0.5 0.5 
0.8888888888888888 0.1111111111111111 
0.5 0.5 
0.9 0.1 
0.5 0.5 
0.3333333333333333 0.6666666666666666 
0.625 0.375 
0.6666666666666666 0.3333333333333333 
0.5 0.5 
0.6666666666666666 0.3333333333333333 
0.75 0.25 
0.6 0.4 
0.875 0.125 
0.5 0.5 
0.5 0.5 
0.5 0.5 
0.8571428571428571 0.14285714285714285 
0.9230769230769231 0.07692307692307693 
0.5 0.5 
0.5 0.5 
0.6666666666666666 0.3333333333333333 
0.5 0.5 
0.9090909090909091 0.09090909090909091 
0.9166666666666666 0.08333333333333333 
0.8 0.2 
0.5 0.5 
0.3333333333333333 0.6666666666666666 
0.8 0.2 
0.6666666666666666 0.3333333333333333 
0.3333333333333333 0.6666666666666666 
0.5555555555555556 0.4444444444444444 
0.16666666666666666 0.8333333333333334 
0.3333333333333333 0.6666666666666666 
0.5 0.5 
0.3333333333333333 0.6666666666666666 
0.3333333333333333 0.6666666666666666 
0.3333333333333333 0.6666666666666666 
0.6666666666666666 0.3333333333333333 
0.4166666666666667 0.5833333333333334 
0.5 0.5 
0.5714285714285714 0.42857142857142855 
0.3333333333333333 0.6666666666666666 
0.5 0.5 
0.5 0.5 
0.5 0.5 
0.2222222222222222 0.7777777777777778 
0.5 0.5 
0.5 0.5 
0.5 0.5 
0.6 0.4 
0.3333333333333333 0.6666666666666666 
0.3333333333333333 0.6666666666666666 
0.5 0.5 
0.25 0.75 
0.3333333333333333 0.6666666666666666 
0.5 0.5 
0.5 0.5 
0.5 0.5 
0.5 0.5 
0.2 0.8 
0.3333333333333333 0.6666666666666666 
0.5 0.5 
0.5 0.5 
0.5 0.5 
0.3333333333333333 0.6666666666666666 
0.8 0.2 
0.2 0.8 
0.125 0.875 
0.6666666666666666 0.3333333333333333 
0.5 0.5 
0.25 0.75 
0.5 0.5 
0.5 0.5 
0.5 0.5 
0.3333333333333333 0.6666666666666666 
0.5 0.5 
0.5 0.5 
0.5 0.5 
0.16666666666666666 0.8333333333333334 
0.3333333333333333 0.6666666666666666 
0.5 0.5 
0.14285714285714285 0.8571428571428571 
0.25 0.75 
0.5 0.5 
0.3333333333333333 0.6666666666666666 
0.16666666666666666 0.8333333333333334 
0.5 0.5 
0.2 0.8 
0.5 0.5 
0.25 0.75 
0.25 0.75 
0.5 0.5 
</TABLE>
</DEFINITION>
<DEFINITION>
<FOR>body-style</FOR>
<GIVEN>num-of-doors</GIVEN>
<GIVEN>make</GIVEN>
<TABLE>
0.2 0.2 0.2 0.2 0.2 
0.1 0.2 0.5 0.1 0.1 
0.1 0.1 0.6 0.1 0.1 
0.16666666666666666 0.16666666666666666 0.3333333333333333 0.16666666666666666 0.16666666666666666 
0.1 0.2 0.4 0.2 0.1 
0.1 0.2 0.5 0.1 0.1 
0.14285714285714285 0.14285714285714285 0.42857142857142855 0.14285714285714285 0.14285714285714285 
0.14285714285714285 0.14285714285714285 0.42857142857142855 0.14285714285714285 0.14285714285714285 
0.07692307692307693 0.07692307692307693 0.6153846153846154 0.15384615384615385 0.07692307692307693 
0.1 0.2 0.5 0.1 0.1 
0.2 0.2 0.2 0.2 0.2 
0.1111111111111111 0.1111111111111111 0.5555555555555556 0.1111111111111111 0.1111111111111111 
0.07142857142857142 0.2857142857142857 0.42857142857142855 0.14285714285714285 0.07142857142857142 
0.0625 0.3125 0.5 0.0625 0.0625 
0.1111111111111111 0.2222222222222222 0.3333333333333333 0.2222222222222222 0.1111111111111111 
0.2 0.2 0.2 0.2 0.2 
0.16666666666666666 0.3333333333333333 0.16666666666666666 0.16666666666666666 0.16666666666666666 
0.125 0.125 0.5 0.125 0.125 
0.07142857142857142 0.35714285714285715 0.42857142857142855 0.07142857142857142 0.07142857142857142 
0.043478260869565216 0.21739130434782608 0.391304347826087 0.30434782608695654 0.043478260869565216 
0.07692307692307693 0.15384615384615385 0.6153846153846154 0.07692307692307693 0.07692307692307693 
0.0625 0.25 0.5625 0.0625 0.0625 
0.125 0.125 0.125 0.25 0.375 
0.14285714285714285 0.14285714285714285 0.2857142857142857 0.2857142857142857 0.14285714285714285 
0.125 0.125 0.5 0.125 0.125 
0.14285714285714285 0.14285714285714285 0.14285714285714285 0.42857142857142855 0.14285714285714285 
0.1111111111111111 0.1111111111111111 0.1111111111111111 0.5555555555555556 0.1111111111111111 
0.07692307692307693 0.07692307692307693 0.15384615384615385 0.6153846153846154 0.07692307692307693 
0.14285714285714285 0.14285714285714285 0.2857142857142857 0.2857142857142857 0.14285714285714285 
0.16666666666666666 0.16666666666666666 0.3333333333333333 0.16666666666666666 0.16666666666666666 
0.07142857142857142 0.07142857142857142 0.07142857142857142 0.7142857142857143 0.07142857142857142 
0.375 0.125 0.125 0.125 0.25 
0.16666666666666666 0.16666666666666666 0.16666666666666666 0.3333333333333333 0.16666666666666666 
0.07142857142857142 0.07142857142857142 0.07142857142857142 0.7142857142857143 0.07142857142857142 
0.14285714285714285 0.07142857142857142 0.35714285714285715 0.35714285714285715 0.07142857142857142 
0.2 0.2 0.2 0.2 0.2 
0.125 0.125 0.125 0.5 0.125 
0.3 0.1 0.1 0.3 0.2 
0.16666666666666666 0.16666666666666666 0.16666666666666666 0.3333333333333333 0.16666666666666666 
0.125 0.125 0.125 0.5 0.125 
0.125 0.125 0.125 0.5 0.125 
0.21052631578947367 0.05263157894736842 0.15789473684210525 0.47368421052631576 0.10526315789473684 
0.1111111111111111 0.1111111111111111 0.3333333333333333 0.2222222222222222 0.2222222222222222 
0.2 0.2 0.2 0.2 0.2 
</TABLE>
</DEFINITION>
<DEFINITION>
<FOR>drive-wheels</FOR>
<GIVEN>height</GIVEN>
<TABLE>
0.047619047619047616 0.3333333333333333 0.6190476190476191 
0.0425531914893617 0.6382978723404256 0.3191489361702128 
0.05405405405405406 0.6891891891891891 0.25675675675675674 
0.12 0.56 0.32 
0.08 0.76 0.16 
0.16666666666666666 0.16666666666666666 0.6666666666666666 
0.10714285714285714 0.17857142857142858 0.7142857142857143 
</TABLE>
</DEFINITION>
<DEFINITION>
<FOR>engine-location</FOR>
<GIVEN>make</GIVEN>
<GIVEN>body-style</GIVEN>
<TABLE>
0.5 0.5 
0.5 0.5 
0.5 0.5 
0.6666666666666666 0.3333333333333333 
0.75 0.25 
0.5 0.5 
0.6666666666666666 0.3333333333333333 
0.8571428571428571 0.14285714285714285 
0.6666666666666666 0.3333333333333333 
0.5 0.5 
0.5 0.5 
0.5 0.5 
0.9 0.1 
0.5 0.5 
0.5 0.5 
0.5 0.5 
0.5 0.5 
0.6666666666666666 0.3333333333333333 
0.75 0.25 
0.5 0.5 
0.5 0.5 
0.6666666666666666 0.3333333333333333 
0.8 0.2 
0.8571428571428571 0.14285714285714285 
0.5 0.5 
0.5 0.5 
0.6666666666666666 0.3333333333333333 
0.8571428571428571 0.14285714285714285 
0.8888888888888888 0.1111111111111111 
0.5 0.5 
0.5 0.5 
0.5 0.5 
0.8 0.2 
0.6666666666666666 0.3333333333333333 
0.5 0.5 
0.5 0.5 
0.5 0.5 
0.8 0.2 
0.5 0.5 
0.5 0.5 
0.5 0.5 
0.5 0.5 
0.8888888888888888 0.1111111111111111 
0.9166666666666666 0.08333333333333333 
0.5 0.5 
0.75 0.25 
0.6666666666666666 0.3333333333333333 
0.8333333333333334 0.16666666666666666 
0.5 0.5 
0.6666666666666666 0.3333333333333333 
0.5 0.5 
0.5 0.5 
0.5 0.5 
0.6666666666666666 0.3333333333333333 
0.5 0.5 
0.5 0.5 
0.5 0.5 
0.8333333333333334 0.16666666666666666 
0.9090909090909091 0.09090909090909091 
0.5 0.5 
0.6666666666666666 0.3333333333333333 
0.8 0.2 
0.9090909090909091 0.09090909090909091 
0.8571428571428571 0.14285714285714285 
0.5 0.5 
0.5 0.5 
0.8333333333333334 0.16666666666666666 
0.8888888888888888 0.1111111111111111 
0.5 0.5 
0.5 0.5 
0.5 0.5 
0.6666666666666666 0.3333333333333333 
0.75 0.25 
0.8333333333333334 0.16666666666666666 
0.5 0.5 
0.25 0.75 
0.5 0.5 
0.5 0.5 
0.75 0.25 
0.3333333333333333 0.6666666666666666 
0.5 0.5 
0.6666666666666666 0.3333333333333333 
0.5 0.5 
0.6666666666666666 0.3333333333333333 
0.5 0.5 
0.5 0.5 
0.5 0.5 
0.8 0.2 
0.8 0.2 
0.5 0.5 
0.5 0.5 
0.8333333333333334 0.16666666666666666 
0.8571428571428571 0.14285714285714285 
0.8 0.2 
0.5 0.5 
0.8 0.2 
0.8333333333333334 0.16666666666666666 
0.9166666666666666 0.08333333333333333 
0.9375 0.0625 
0.6666666666666666 0.3333333333333333 
0.5 0.5 
0.6666666666666666 0.3333333333333333 
0.9090909090909091 0.09090909090909091 
0.6666666666666666 0.3333333333333333 
0.6666666666666666 0.3333333333333333 
0.5 0.5 
0.8 0.2 
0.9 0.1 
0.5 0.5 
0.5 0.5 
</TABLE>
</DEFINITION>
<DEFINITION>
<FOR>wheel-base</FOR>
<GIVEN>length</GIVEN>
<GIVEN>make</GIVEN>
<TABLE>
0.14285714285714285 0.14285714285714285 0.14285714285714285 0.14285714285714285 0.14285714285714285 0.14285714285714285 0.14285714285714285 
0.14285714285714285 0.14285714285714285 0.14285714285714285 0.14285714285714285 0.14285714285714285 0.14285714285714285 0.14285714285714285 
0.14285714285714285 0.14285714285714285 0.14285714285714285 0.14285714285714285 0.14285714285714285 0.14285714285714285 0.14285714285714285 
0.2 0.1 0.3 0.1 0.1 0.1 0.1 
0.07142857142857142 0.07142857142857142 0.5714285714285714 0.07142857142857142 0.07142857142857142 0.07142857142857142 0.07142857142857142 
0.1875 0.0625 0.25 0.0625 0.3125 0.0625 0.0625 
0.1111111111111111 0.1111111111111111 0.3333333333333333 0.1111111111111111 0.1111111111111111 0.1111111111111111 0.1111111111111111 
0.14285714285714285 0.14285714285714285 0.14285714285714285 0.14285714285714285 0.14285714285714285 0.14285714285714285 0.14285714285714285 
0.08333333333333333 0.08333333333333333 0.5 0.08333333333333333 0.08333333333333333 0.08333333333333333 0.08333333333333333 
0.14285714285714285 0.14285714285714285 0.14285714285714285 0.14285714285714285 0.14285714285714285 0.14285714285714285 0.14285714285714285 
0.14285714285714285 0.14285714285714285 0.14285714285714285 0.14285714285714285 0.14285714285714285 0.14285714285714285 0.14285714285714285 
0.09090909090909091 0.09090909090909091 0.45454545454545453 0.09090909090909091 0.09090909090909091 0.09090909090909091 0.09090909090909091 
0.06666666666666667 0.06666666666666667 0.6 0.06666666666666667 0.06666666666666667 0.06666666666666667 0.06666666666666667 
0.14285714285714285 0.14285714285714285 0.14285714285714285 0.14285714285714285 0.14285714285714285 0.14285714285714285 0.14285714285714285 
0.08333333333333333 0.08333333333333333 0.5 0.08333333333333333 0.08333333333333333 0.08333333333333333 0.08333333333333333 
0.14285714285714285 0.14285714285714285 0.14285714285714285 0.14285714285714285 0.14285714285714285 0.14285714285714285 0.14285714285714285 
0.14285714285714285 0.14285714285714285 0.14285714285714285 0.14285714285714285 0.14285714285714285 0.14285714285714285 0.14285714285714285 
0.14285714285714285 0.14285714285714285 0.14285714285714285 0.14285714285714285 0.14285714285714285 0.14285714285714285 0.14285714285714285 
0.1 0.1 0.4 0.1 0.1 0.1 0.1 
0.047619047619047616 0.047619047619047616 0.23809523809523808 0.047619047619047616 0.5238095238095238 0.047619047619047616 0.047619047619047616 
0.1111111111111111 0.1111111111111111 0.3333333333333333 0.1111111111111111 0.1111111111111111 0.1111111111111111 0.1111111111111111 
0.14285714285714285 0.14285714285714285 0.14285714285714285 0.14285714285714285 0.14285714285714285 0.14285714285714285 0.14285714285714285 
0.1111111111111111 0.3333333333333333 0.1111111111111111 0.1111111111111111 0.1111111111111111 0.1111111111111111 0.1111111111111111 
0.14285714285714285 0.14285714285714285 0.14285714285714285 0.14285714285714285 0.14285714285714285 0.14285714285714285 0.14285714285714285 
0.14285714285714285 0.14285714285714285 0.14285714285714285 0.14285714285714285 0.14285714285714285 0.14285714285714285 0.14285714285714285 
0.14285714285714285 0.14285714285714285 0.14285714285714285 0.14285714285714285 0.14285714285714285 0.14285714285714285 0.14285714285714285 
0.14285714285714285 0.14285714285714285 0.14285714285714285 0.14285714285714285 0.14285714285714285 0.14285714285714285 0.14285714285714285 
0.14285714285714285 0.14285714285714285 0.14285714285714285 0.14285714285714285 0.14285714285714285 0.14285714285714285 0.14285714285714285 
0.14285714285714285 0.14285714285714285 0.14285714285714285 0.14285714285714285 0.14285714285714285 0.14285714285714285 0.14285714285714285 
0.14285714285714285 0.14285714285714285 0.14285714285714285 0.14285714285714285 0.14285714285714285 0.14285714285714285 0.14285714285714285 
0.09090909090909091 0.09090909090909091 0.09090909090909091 0.45454545454545453 0.09090909090909091 0.09090909090909091 0.09090909090909091 
0.14285714285714285 0.14285714285714285 0.14285714285714285 0.14285714285714285 0.14285714285714285 0.14285714285714285 0.14285714285714285 
0.14285714285714285 0.14285714285714285 0.14285714285714285 0.14285714285714285 0.14285714285714285 0.14285714285714285 0.14285714285714285 
0.14285714285714285 0.14285714285714285 0.14285714285714285 0.14285714285714285 0.14285714285714285 0.14285714285714285 0.14285714285714285 
0.14285714285714285 0.14285714285714285 0.14285714285714285 0.14285714285714285 0.14285714285714285 0.14285714285714285 0.14285714285714285 
0.14285714285714285 0.14285714285714285 0.14285714285714285 0.14285714285714285 0.14285714285714285 0.14285714285714285 0.14285714285714285 
0.14285714285714285 0.14285714285714285 0.14285714285714285 0.14285714285714285 0.14285714285714285 0.14285714285714285 0.14285714285714285 
0.09090909090909091 0.36363636363636365 0.18181818181818182 0.09090909090909091 0.09090909090909091 0.09090909090909091 0.09090909090909091 
0.14285714285714285 0.14285714285714285 0.14285714285714285 0.14285714285714285 0.14285714285714285 0.14285714285714285 0.14285714285714285 
0.14285714285714285 0.14285714285714285 0.14285714285714285 0.14285714285714285 0.14285714285714285 0.14285714285714285 0.14285714285714285 
0.14285714285714285 0.14285714285714285 0.14285714285714285 0.14285714285714285 0.14285714285714285 0.14285714285714285 0.14285714285714285 
0.14285714285714285 0.14285714285714285 0.14285714285714285 0.14285714285714285 0.14285714285714285 0.14285714285714285 0.14285714285714285 
0.14285714285714285 0.14285714285714285 0.14285714285714285 0.14285714285714285 0.14285714285714285 0.14285714285714285 0.14285714285714285 
0.14285714285714285 0.14285714285714285 0.14285714285714285 0.14285714285714285 0.14285714285714285 0.14285714285714285 0.14285714285714285 
0.125 0.125 0.25 0.125 0.125 0.125 0.125 
0.14285714285714285 0.14285714285714285 0.14285714285714285 0.14285714285714285 0.14285714285714285 0.14285714285714285 0.14285714285714285 
0.14285714285714285 0.14285714285714285 0.14285714285714285 0.14285714285714285 0.14285714285714285 0.14285714285714285 0.14285714285714285 
0.14285714285714285 0.14285714285714285 0.14285714285714285 0.14285714285714285 0.14285714285714285 0.14285714285714285 0.14285714285714285 
0.14285714285714285 0.14285714285714285 0.14285714285714285 0.14285714285714285 0.14285714285714285 0.14285714285714285 0.14285714285714285 
0.125 0.125 0.125 0.125 0.25 0.125 0.125 
0.1111111111111111 0.1111111111111111 0.2222222222222222 0.1111111111111111 0.2222222222222222 0.1111111111111111 0.1111111111111111 
0.14285714285714285 0.14285714285714285 0.14285714285714285 0.14285714285714285 0.14285714285714285 0.14285714285714285 0.14285714285714285 
0.14285714285714285 0.14285714285714285 0.14285714285714285 0.14285714285714285 0.14285714285714285 0.14285714285714285 0.14285714285714285 
0.14285714285714285 0.14285714285714285 0.14285714285714285 0.14285714285714285 0.14285714285714285 0.14285714285714285 0.14285714285714285 
0.14285714285714285 0.14285714285714285 0.14285714285714285 0.14285714285714285 0.14285714285714285 0.14285714285714285 0.14285714285714285 
0.09090909090909091 0.09090909090909091 0.09090909090909091 0.09090909090909091 0.45454545454545453 0.09090909090909091 0.09090909090909091 
0.09090909090909091 0.2727272727272727 0.2727272727272727 0.09090909090909091 0.09090909090909091 0.09090909090909091 0.09090909090909091 
0.14285714285714285 0.14285714285714285 0.14285714285714285 0.14285714285714285 0.14285714285714285 0.14285714285714285 0.14285714285714285 
0.14285714285714285 0.14285714285714285 0.14285714285714285 0.14285714285714285 0.14285714285714285 0.14285714285714285 0.14285714285714285 
0.14285714285714285 0.14285714285714285 0.14285714285714285 0.14285714285714285 0.14285714285714285 0.14285714285714285 0.14285714285714285 
0.14285714285714285 0.14285714285714285 0.14285714285714285 0.14285714285714285 0.14285714285714285 0.14285714285714285 0.14285714285714285 
0.14285714285714285 0.14285714285714285 0.14285714285714285 0.14285714285714285 0.14285714285714285 0.14285714285714285 0.14285714285714285 
0.08333333333333333 0.08333333333333333 0.08333333333333333 0.08333333333333333 0.5 0.08333333333333333 0.08333333333333333 
0.1 0.1 0.1 0.1 0.4 0.1 0.1 
0.07142857142857142 0.07142857142857142 0.07142857142857142 0.07142857142857142 0.07142857142857142 0.5714285714285714 0.07142857142857142 
0.14285714285714285 0.14285714285714285 0.14285714285714285 0.14285714285714285 0.14285714285714285 0.14285714285714285 0.14285714285714285 
0.14285714285714285 0.14285714285714285 0.14285714285714285 0.14285714285714285 0.14285714285714285 0.14285714285714285 0.14285714285714285 
0.14285714285714285 0.14285714285714285 0.14285714285714285 0.14285714285714285 0.14285714285714285 0.14285714285714285 0.14285714285714285 
0.14285714285714285 0.14285714285714285 0.14285714285714285 0.14285714285714285 0.14285714285714285 0.14285714285714285 0.14285714285714285 
0.14285714285714285 0.14285714285714285 0.14285714285714285 0.14285714285714285 0.14285714285714285 0.14285714285714285 0.14285714285714285 
0.125 0.125 0.125 0.125 0.25 0.125 0.125 
0.14285714285714285 0.14285714285714285 0.14285714285714285 0.14285714285714285 0.14285714285714285 0.14285714285714285 0.14285714285714285 
0.14285714285714285 0.14285714285714285 0.14285714285714285 0.14285714285714285 0.14285714285714285 0.14285714285714285 0.14285714285714285 
0.14285714285714285 0.14285714285714285 0.14285714285714285 0.14285714285714285 0.14285714285714285 0.14285714285714285 0.14285714285714285 
0.14285714285714285 0.14285714285714285 0.14285714285714285 0.14285714285714285 0.14285714285714285 0.14285714285714285 0.14285714285714285 
0.14285714285714285 0.14285714285714285 0.14285714285714285 0.14285714285714285 0.14285714285714285 0.14285714285714285 0.14285714285714285 
0.14285714285714285 0.14285714285714285 0.14285714285714285 0.14285714285714285 0.14285714285714285 0.14285714285714285 0.14285714285714285 
0.08333333333333333 0.08333333333333333 0.08333333333333333 0.08333333333333333 0.5 0.08333333333333333 0.08333333333333333 
0.14285714285714285 0.14285714285714285 0.14285714285714285 0.14285714285714285 0.14285714285714285 0.14285714285714285 0.14285714285714285 
0.14285714285714285 0.14285714285714285 0.14285714285714285 0.14285714285714285 0.14285714285714285 0.14285714285714285 0.14285714285714285 
0.125 0.125 0.125 0.125 0.25 0.125 0.125 
0.14285714285714285 0.14285714285714285 0.14285714285714285 0.14285714285714285 0.14285714285714285 0.14285714285714285 0.14285714285714285 
0.14285714285714285 0.14285714285714285 0.14285714285714285 0.14285714285714285 0.14285714285714285 0.14285714285714285 0.14285714285714285 
0.14285714285714285 0.14285714285714285 0.14285714285714285 0.14285714285714285 0.14285714285714285 0.14285714285714285 0.14285714285714285 
0.14285714285714285 0.14285714285714285 0.14285714285714285 0.14285714285714285 0.14285714285714285 0.14285714285714285 0.14285714285714285 
0.14285714285714285 0.14285714285714285 0.14285714285714285 0.14285714285714285 0.14285714285714285 0.14285714285714285 0.14285714285714285 
0.14285714285714285 0.14285714285714285 0.14285714285714285 0.14285714285714285 0.14285714285714285 0.14285714285714285 0.14285714285714285 
0.14285714285714285 0.14285714285714285 0.14285714285714285 0.14285714285714285 0.14285714285714285 0.14285714285714285 0.14285714285714285 
0.14285714285714285 0.14285714285714285 0.14285714285714285 0.14285714285714285 0.14285714285714285 0.14285714285714285 0.14285714285714285 
0.14285714285714285 0.14285714285714285 0.14285714285714285 0.14285714285714285 0.14285714285714285 0.14285714285714285 0.14285714285714285 
0.14285714285714285 0.14285714285714285 0.14285714285714285 0.14285714285714285 0.14285714285714285 0.14285714285714285 0.14285714285714285 
0.14285714285714285 0.14285714285714285 0.14285714285714285 0.14285714285714285 0.14285714285714285 0.14285714285714285 0.14285714285714285 
0.125 0.125 0.125 0.125 0.125 0.125 0.25 
0.1 0.1 0.1 0.1 0.4 0.1 0.1 
0.14285714285714285 0.14285714285714285 0.14285714285714285 0.14285714285714285 0.14285714285714285 0.14285714285714285 0.14285714285714285 
0.14285714285714285 0.14285714285714285 0.14285714285714285 0.14285714285714285 0.14285714285714285 0.14285714285714285 0.14285714285714285 
0.1111111111111111 0.1111111111111111 0.1111111111111111 0.1111111111111111 0.1111111111111111 0.1111111111111111 0.3333333333333333 
0.14285714285714285 0.14285714285714285 0.14285714285714285 0.14285714285714285 0.14285714285714285 0.14285714285714285 0.14285714285714285 
0.14285714285714285 0.14285714285714285 0.14285714285714285 0.14285714285714285 0.14285714285714285 0.14285714285714285 0.14285714285714285 
0.14285714285714285 0.14285714285714285 0.14285714285714285 0.14285714285714285 0.14285714285714285 0.14285714285714285 0.14285714285714285 
0.1111111111111111 0.1111111111111111 0.1111111111111111 0.1111111111111111 0.3333333333333333 0.1111111111111111 0.1111111111111111 
0.14285714285714285 0.14285714285714285 0.14285714285714285 0.14285714285714285 0.14285714285714285 0.14285714285714285 0.14285714285714285 
0.125 0.125 0.125 0.125 0.125 0.125 0.25 
0.14285714285714285 0.14285714285714285 0.14285714285714285 0.14285714285714285 0.14285714285714285 0.14285714285714285 0.14285714285714285 
0.14285714285714285 0.14285714285714285 0.14285714285714285 0.14285714285714285 0.14285714285714285 0.14285714285714285 0.14285714285714285 
0.14285714285714285 0.14285714285714285 0.14285714285714285 0.14285714285714285 0.14285714285714285 0.14285714285714285 0.14285714285714285 
0.09090909090909091 0.09090909090909091 0.09090909090909091 0.09090909090909091 0.45454545454545453 0.09090909090909091 0.09090909090909091 
0.14285714285714285 0.14285714285714285 0.14285714285714285 0.14285714285714285 0.14285714285714285 0.14285714285714285 0.14285714285714285 
0.14285714285714285 0.14285714285714285 0.14285714285714285 0.14285714285714285 0.14285714285714285 0.14285714285714285 0.14285714285714285 
0.14285714285714285 0.14285714285714285 0.14285714285714285 0.14285714285714285 0.14285714285714285 0.14285714285714285 0.14285714285714285 
0.14285714285714285 0.14285714285714285 0.14285714285714285 0.14285714285714285 0.14285714285714285 0.14285714285714285 0.14285714285714285 
0.14285714285714285 0.14285714285714285 0.14285714285714285 0.14285714285714285 0.14285714285714285 0.14285714285714285 0.14285714285714285 
0.14285714285714285 0.14285714285714285 0.14285714285714285 0.14285714285714285 0.14285714285714285 0.14285714285714285 0.14285714285714285 
0.14285714285714285 0.14285714285714285 0.14285714285714285 0.14285714285714285 0.14285714285714285 0.14285714285714285 0.14285714285714285 
0.14285714285714285 0.14285714285714285 0.14285714285714285 0.14285714285714285 0.14285714285714285 0.14285714285714285 0.14285714285714285 
0.14285714285714285 0.14285714285714285 0.14285714285714285 0.14285714285714285 0.14285714285714285 0.14285714285714285 0.14285714285714285 
0.14285714285714285 0.14285714285714285 0.14285714285714285 0.14285714285714285 0.14285714285714285 0.14285714285714285 0.14285714285714285 
0.14285714285714285 0.14285714285714285 0.14285714285714285 0.14285714285714285 0.14285714285714285 0.14285714285714285 0.14285714285714285 
0.14285714285714285 0.14285714285714285 0.14285714285714285 0.14285714285714285 0.14285714285714285 0.14285714285714285 0.14285714285714285 
0.14285714285714285 0.14285714285714285 0.14285714285714285 0.14285714285714285 0.14285714285714285 0.14285714285714285 0.14285714285714285 
0.14285714285714285 0.14285714285714285 0.14285714285714285 0.14285714285714285 0.14285714285714285 0.14285714285714285 0.14285714285714285 
0.14285714285714285 0.14285714285714285 0.14285714285714285 0.14285714285714285 0.14285714285714285 0.14285714285714285 0.14285714285714285 
0.14285714285714285 0.14285714285714285 0.14285714285714285 0.14285714285714285 0.14285714285714285 0.14285714285714285 0.14285714285714285 
0.14285714285714285 0.14285714285714285 0.14285714285714285 0.14285714285714285 0.14285714285714285 0.14285714285714285 0.14285714285714285 
0.14285714285714285 0.14285714285714285 0.14285714285714285 0.14285714285714285 0.14285714285714285 0.14285714285714285 0.14285714285714285 
0.14285714285714285 0.14285714285714285 0.14285714285714285 0.14285714285714285 0.14285714285714285 0.14285714285714285 0.14285714285714285 
0.14285714285714285 0.14285714285714285 0.14285714285714285 0.14285714285714285 0.14285714285714285 0.14285714285714285 0.14285714285714285 
0.14285714285714285 0.14285714285714285 0.14285714285714285 0.14285714285714285 0.14285714285714285 0.14285714285714285 0.14285714285714285 
0.14285714285714285 0.14285714285714285 0.14285714285714285 0.14285714285714285 0.14285714285714285 0.14285714285714285 0.14285714285714285 
0.08333333333333333 0.08333333333333333 0.08333333333333333 0.08333333333333333 0.08333333333333333 0.08333333333333333 0.5 
0.14285714285714285 0.14285714285714285 0.14285714285714285 0.14285714285714285 0.14285714285714285 0.14285714285714285 0.14285714285714285 
0.14285714285714285 0.14285714285714285 0.14285714285714285 0.14285714285714285 0.14285714285714285 0.14285714285714285 0.14285714285714285 
0.14285714285714285 0.14285714285714285 0.14285714285714285 0.14285714285714285 0.14285714285714285 0.14285714285714285 0.14285714285714285 
0.1 0.1 0.1 0.1 0.1 0.4 0.1 
0.09090909090909091 0.09090909090909091 0.09090909090909091 0.09090909090909091 0.09090909090909091 0.09090909090909091 0.45454545454545453 
0.14285714285714285 0.14285714285714285 0.14285714285714285 0.14285714285714285 0.14285714285714285 0.14285714285714285 0.14285714285714285 
0.14285714285714285 0.14285714285714285 0.14285714285714285 0.14285714285714285 0.14285714285714285 0.14285714285714285 0.14285714285714285 
0.14285714285714285 0.14285714285714285 0.14285714285714285 0.14285714285714285 0.14285714285714285 0.14285714285714285 0.14285714285714285 
0.14285714285714285 0.14285714285714285 0.14285714285714285 0.14285714285714285 0.14285714285714285 0.14285714285714285 0.14285714285714285 
0.14285714285714285 0.14285714285714285 0.14285714285714285 0.14285714285714285 0.14285714285714285 0.14285714285714285 0.14285714285714285 
0.14285714285714285 0.14285714285714285 0.14285714285714285 0.14285714285714285 0.14285714285714285 0.14285714285714285 0.14285714285714285 
0.14285714285714285 0.14285714285714285 0.14285714285714285 0.14285714285714285 0.14285714285714285 0.14285714285714285 0.14285714285714285 
0.14285714285714285 0.14285714285714285 0.14285714285714285 0.14285714285714285 0.14285714285714285 0.14285714285714285 0.14285714285714285 
0.14285714285714285 0.14285714285714285 0.14285714285714285 0.14285714285714285 0.14285714285714285 0.14285714285714285 0.14285714285714285 
0.14285714285714285 0.14285714285714285 0.14285714285714285 0.14285714285714285 0.14285714285714285 0.14285714285714285 0.14285714285714285 
0.14285714285714285 0.14285714285714285 0.14285714285714285 0.14285714285714285 0.14285714285714285 0.14285714285714285 0.14285714285714285 
0.14285714285714285 0.14285714285714285 0.14285714285714285 0.14285714285714285 0.14285714285714285 0.14285714285714285 0.14285714285714285 
0.125 0.125 0.125 0.125 0.125 0.25 0.125 
0.125 0.125 0.125 0.125 0.25 0.125 0.125 
0.14285714285714285 0.14285714285714285 0.14285714285714285 0.14285714285714285 0.14285714285714285 0.14285714285714285 0.14285714285714285 
0.14285714285714285 0.14285714285714285 0.14285714285714285 0.14285714285714285 0.14285714285714285 0.14285714285714285 0.14285714285714285 
0.07692307692307693 0.07692307692307693 0.07692307692307693 0.07692307692307693 0.07692307692307693 0.5384615384615384 0.07692307692307693 
0.14285714285714285 0.14285714285714285 0.14285714285714285 0.14285714285714285 0.14285714285714285 0.14285714285714285 0.14285714285714285 
0.14285714285714285 0.14285714285714285 0.14285714285714285 0.14285714285714285 0.14285714285714285 0.14285714285714285 0.14285714285714285 
0.14285714285714285 0.14285714285714285 0.14285714285714285 0.14285714285714285 0.14285714285714285 0.14285714285714285 0.14285714285714285 
0.125 0.125 0.125 0.125 0.125 0.25 0.125 
0.14285714285714285 0.14285714285714285 0.14285714285714285 0.14285714285714285 0.14285714285714285 0.14285714285714285 0.14285714285714285 
0.14285714285714285 0.14285714285714285 0.14285714285714285 0.14285714285714285 0.14285714285714285 0.14285714285714285 0.14285714285714285 
0.14285714285714285 0.14285714285714285 0.14285714285714285 0.14285714285714285 0.14285714285714285 0.14285714285714285 0.14285714285714285 
0.14285714285714285 0.14285714285714285 0.14285714285714285 0.14285714285714285 0.14285714285714285 0.14285714285714285 0.14285714285714285 
0.14285714285714285 0.14285714285714285 0.14285714285714285 0.14285714285714285 0.14285714285714285 0.14285714285714285 0.14285714285714285 
0.14285714285714285 0.14285714285714285 0.14285714285714285 0.14285714285714285 0.14285714285714285 0.14285714285714285 0.14285714285714285 
0.07692307692307693 0.07692307692307693 0.07692307692307693 0.07692307692307693 0.07692307692307693 0.5384615384615384 0.07692307692307693 
0.14285714285714285 0.14285714285714285 0.14285714285714285 0.14285714285714285 0.14285714285714285 0.14285714285714285 0.14285714285714285 
0.125 0.125 0.125 0.125 0.125 0.125 0.25 
0.14285714285714285 0.14285714285714285 0.14285714285714285 0.14285714285714285 0.14285714285714285 0.14285714285714285 0.14285714285714285 
0.125 0.125 0.125 0.125 0.125 0.25 0.125 
0.14285714285714285 0.14285714285714285 0.14285714285714285 0.14285714285714285 0.14285714285714285 0.14285714285714285 0.14285714285714285 
0.14285714285714285 0.14285714285714285 0.14285714285714285 0.14285714285714285 0.14285714285714285 0.14285714285714285 0.14285714285714285 
0.14285714285714285 0.14285714285714285 0.14285714285714285 0.14285714285714285 0.14285714285714285 0.14285714285714285 0.14285714285714285 
0.14285714285714285 0.14285714285714285 0.14285714285714285 0.14285714285714285 0.14285714285714285 0.14285714285714285 0.14285714285714285 
0.14285714285714285 0.14285714285714285 0.14285714285714285 0.14285714285714285 0.14285714285714285 0.14285714285714285 0.14285714285714285 
0.14285714285714285 0.14285714285714285 0.14285714285714285 0.14285714285714285 0.14285714285714285 0.14285714285714285 0.14285714285714285 
0.14285714285714285 0.14285714285714285 0.14285714285714285 0.14285714285714285 0.14285714285714285 0.14285714285714285 0.14285714285714285 
0.14285714285714285 0.14285714285714285 0.14285714285714285 0.14285714285714285 0.14285714285714285 0.14285714285714285 0.14285714285714285 
0.14285714285714285 0.14285714285714285 0.14285714285714285 0.14285714285714285 0.14285714285714285 0.14285714285714285 0.14285714285714285 
0.14285714285714285 0.14285714285714285 0.14285714285714285 0.14285714285714285 0.14285714285714285 0.14285714285714285 0.14285714285714285 
0.14285714285714285 0.14285714285714285 0.14285714285714285 0.14285714285714285 0.14285714285714285 0.14285714285714285 0.14285714285714285 
0.14285714285714285 0.14285714285714285 0.14285714285714285 0.14285714285714285 0.14285714285714285 0.14285714285714285 0.14285714285714285 
0.14285714285714285 0.14285714285714285 0.14285714285714285 0.14285714285714285 0.14285714285714285 0.14285714285714285 0.14285714285714285 
0.14285714285714285 0.14285714285714285 0.14285714285714285 0.14285714285714285 0.14285714285714285 0.14285714285714285 0.14285714285714285 
0.14285714285714285 0.14285714285714285 0.14285714285714285 0.14285714285714285 0.14285714285714285 0.14285714285714285 0.14285714285714285 
0.14285714285714285 0.14285714285714285 0.14285714285714285 0.14285714285714285 0.14285714285714285 0.14285714285714285 0.14285714285714285 
0.14285714285714285 0.14285714285714285 0.14285714285714285 0.14285714285714285 0.14285714285714285 0.14285714285714285 0.14285714285714285 
0.14285714285714285 0.14285714285714285 0.14285714285714285 0.14285714285714285 0.14285714285714285 0.14285714285714285 0.14285714285714285 
0.1111111111111111 0.1111111111111111 0.1111111111111111 0.1111111111111111 0.2222222222222222 0.1111111111111111 0.2222222222222222 
0.14285714285714285 0.14285714285714285 0.14285714285714285 0.14285714285714285 0.14285714285714285 0.14285714285714285 0.14285714285714285 
0.14285714285714285 0.14285714285714285 0.14285714285714285 0.14285714285714285 0.14285714285714285 0.14285714285714285 0.14285714285714285 
0.1 0.1 0.1 0.1 0.1 0.1 0.4 
0.07142857142857142 0.07142857142857142 0.07142857142857142 0.07142857142857142 0.07142857142857142 0.07142857142857142 0.5714285714285714 
0.14285714285714285 0.14285714285714285 0.14285714285714285 0.14285714285714285 0.14285714285714285 0.14285714285714285 0.14285714285714285 
0.14285714285714285 0.14285714285714285 0.14285714285714285 0.14285714285714285 0.14285714285714285 0.14285714285714285 0.14285714285714285 
0.125 0.125 0.125 0.125 0.25 0.125 0.125 
0.07692307692307693 0.07692307692307693 0.07692307692307693 0.07692307692307693 0.07692307692307693 0.5384615384615384 0.07692307692307693 
0.14285714285714285 0.14285714285714285 0.14285714285714285 0.14285714285714285 0.14285714285714285 0.14285714285714285 0.14285714285714285 
0.1111111111111111 0.1111111111111111 0.1111111111111111 0.1111111111111111 0.1111111111111111 0.1111111111111111 0.3333333333333333 
0.1 0.1 0.1 0.1 0.1 0.1 0.4 
0.14285714285714285 0.14285714285714285 0.14285714285714285 0.14285714285714285 0.14285714285714285 0.14285714285714285 0.14285714285714285 
0.14285714285714285 0.14285714285714285 0.14285714285714285 0.14285714285714285 0.14285714285714285 0.14285714285714285 0.14285714285714285 
0.14285714285714285 0.14285714285714285 0.14285714285714285 0.14285714285714285 0.14285714285714285 0.14285714285714285 0.14285714285714285 
0.14285714285714285 0.14285714285714285 0.14285714285714285 0.14285714285714285 0.14285714285714285 0.14285714285714285 0.14285714285714285 
0.14285714285714285 0.14285714285714285 0.14285714285714285 0.14285714285714285 0.14285714285714285 0.14285714285714285 0.14285714285714285 
0.14285714285714285 0.14285714285714285 0.14285714285714285 0.14285714285714285 0.14285714285714285 0.14285714285714285 0.14285714285714285 
0.14285714285714285 0.14285714285714285 0.14285714285714285 0.14285714285714285 0.14285714285714285 0.14285714285714285 0.14285714285714285 
0.14285714285714285 0.14285714285714285 0.14285714285714285 0.14285714285714285 0.14285714285714285 0.14285714285714285 0.14285714285714285 
0.14285714285714285 0.14285714285714285 0.14285714285714285 0.14285714285714285 0.14285714285714285 0.14285714285714285 0.14285714285714285 
0.14285714285714285 0.14285714285714285 0.14285714285714285 0.14285714285714285 0.14285714285714285 0.14285714285714285 0.14285714285714285 
0.14285714285714285 0.14285714285714285 0.14285714285714285 0.14285714285714285 0.14285714285714285 0.14285714285714285 0.14285714285714285 
0.14285714285714285 0.14285714285714285 0.14285714285714285 0.14285714285714285 0.14285714285714285 0.14285714285714285 0.14285714285714285 
0.14285714285714285 0.14285714285714285 0.14285714285714285 0.14285714285714285 0.14285714285714285 0.14285714285714285 0.14285714285714285 
0.14285714285714285 0.14285714285714285 0.14285714285714285 0.14285714285714285 0.14285714285714285 0.14285714285714285 0.14285714285714285 
0.14285714285714285 0.14285714285714285 0.14285714285714285 0.14285714285714285 0.14285714285714285 0.14285714285714285 0.14285714285714285 
0.14285714285714285 0.14285714285714285 0.14285714285714285 0.14285714285714285 0.14285714285714285 0.14285714285714285 0.14285714285714285 
0.14285714285714285 0.14285714285714285 0.14285714285714285 0.14285714285714285 0.14285714285714285 0.14285714285714285 0.14285714285714285 
0.14285714285714285 0.14285714285714285 0.14285714285714285 0.14285714285714285 0.14285714285714285 0.14285714285714285 0.14285714285714285 
0.14285714285714285 0.14285714285714285 0.14285714285714285 0.14285714285714285 0.14285714285714285 0.14285714285714285 0.14285714285714285 
0.14285714285714285 0.14285714285714285 0.14285714285714285 0.14285714285714285 0.14285714285714285 0.14285714285714285 0.14285714285714285 
0.1111111111111111 0.1111111111111111 0.1111111111111111 0.1111111111111111 0.1111111111111111 0.1111111111111111 0.3333333333333333 
0.14285714285714285 0.14285714285714285 0.14285714285714285 0.14285714285714285 0.14285714285714285 0.14285714285714285 0.14285714285714285 
0.05555555555555555 0.05555555555555555 0.05555555555555555 0.05555555555555555 0.05555555555555555 0.05555555555555555 0.6666666666666666 
0.14285714285714285 0.14285714285714285 0.14285714285714285 0.14285714285714285 0.14285714285714285 0.14285714285714285 0.14285714285714285 
0.1 0.1 0.1 0.1 0.1 0.1 0.4 
0.09090909090909091 0.09090909090909091 0.09090909090909091 0.09090909090909091 0.09090909090909091 0.09090909090909091 0.45454545454545453 
0.14285714285714285 0.14285714285714285 0.14285714285714285 0.14285714285714285 0.14285714285714285 0.14285714285714285 0.14285714285714285 
0.14285714285714285 0.14285714285714285 0.14285714285714285 0.14285714285714285 0.14285714285714285 0.14285714285714285 0.14285714285714285 
0.14285714285714285 0.14285714285714285 0.14285714285714285 0.14285714285714285 0.14285714285714285 0.14285714285714285 0.14285714285714285 
0.14285714285714285 0.14285714285714285 0.14285714285714285 0.14285714285714285 0.14285714285714285 0.14285714285714285 0.14285714285714285 
0.1 0.1 0.1 0.1 0.1 0.1 0.4 
0.14285714285714285 0.14285714285714285 0.14285714285714285 0.14285714285714285 0.14285714285714285 0.14285714285714285 0.14285714285714285 
0.07692307692307693 0.07692307692307693 0.07692307692307693 0.07692307692307693 0.07692307692307693 0.07692307692307693 0.5384615384615384 
0.14285714285714285 0.14285714285714285 0.14285714285714285 0.14285714285714285 0.14285714285714285 0.14285714285714285 0.14285714285714285 
0.14285714285714285 0.14285714285714285 0.14285714285714285 0.14285714285714285 0.14285714285714285 0.14285714285714285 0.14285714285714285 
0.14285714285714285 0.14285714285714285 0.14285714285714285 0.14285714285714285 0.14285714285714285 0.14285714285714285 0.14285714285714285 
0.09090909090909091 0.09090909090909091 0.09090909090909091 0.09090909090909091 0.09090909090909091 0.09090909090909091 0.45454545454545453 
0.14285714285714285 0.14285714285714285 0.14285714285714285 0.14285714285714285 0.14285714285714285 0.14285714285714285 0.14285714285714285 
0.14285714285714285 0.14285714285714285 0.14285714285714285 0.14285714285714285 0.14285714285714285 0.14285714285714285 0.14285714285714285 
0.14285714285714285 0.14285714285714285 0.14285714285714285 0.14285714285714285 0.14285714285714285 0.14285714285714285 0.14285714285714285 
0.14285714285714285 0.14285714285714285 0.14285714285714285 0.14285714285714285 0.14285714285714285 0.14285714285714285 0.14285714285714285 
0.14285714285714285 0.14285714285714285 0.14285714285714285 0.14285714285714285 0.14285714285714285 0.14285714285714285 0.14285714285714285 
0.14285714285714285 0.14285714285714285 0.14285714285714285 0.14285714285714285 0.14285714285714285 0.14285714285714285 0.14285714285714285 
0.14285714285714285 0.14285714285714285 0.14285714285714285 0.14285714285714285 0.14285714285714285 0.14285714285714285 0.14285714285714285 
0.14285714285714285 0.14285714285714285 0.14285714285714285 0.14285714285714285 0.14285714285714285 0.14285714285714285 0.14285714285714285 
</TABLE>
</DEFINITION>
<DEFINITION>
<FOR>length</FOR>
<GIVEN>make</GIVEN>
<GIVEN>height</GIVEN>
<TABLE>
0.07692307692307693 0.23076923076923078 0.07692307692307693 0.07692307692307693 0.07692307692307693 0.07692307692307693 0.07692307692307693 0.07692307692307693 0.07692307692307693 0.07692307692307693 0.07692307692307693 
0.08333333333333333 0.08333333333333333 0.16666666666666666 0.08333333333333333 0.08333333333333333 0.08333333333333333 0.08333333333333333 0.08333333333333333 0.08333333333333333 0.08333333333333333 0.08333333333333333 
0.09090909090909091 0.09090909090909091 0.09090909090909091 0.09090909090909091 0.09090909090909091 0.09090909090909091 0.09090909090909091 0.09090909090909091 0.09090909090909091 0.09090909090909091 0.09090909090909091 
0.09090909090909091 0.09090909090909091 0.09090909090909091 0.09090909090909091 0.09090909090909091 0.09090909090909091 0.09090909090909091 0.09090909090909091 0.09090909090909091 0.09090909090909091 0.09090909090909091 
0.09090909090909091 0.09090909090909091 0.09090909090909091 0.09090909090909091 0.09090909090909091 0.09090909090909091 0.09090909090909091 0.09090909090909091 0.09090909090909091 0.09090909090909091 0.09090909090909091 
0.09090909090909091 0.09090909090909091 0.09090909090909091 0.09090909090909091 0.09090909090909091 0.09090909090909091 0.09090909090909091 0.09090909090909091 0.09090909090909091 0.09090909090909091 0.09090909090909091 
0.09090909090909091 0.09090909090909091 0.09090909090909091 0.09090909090909091 0.09090909090909091 0.09090909090909091 0.09090909090909091 0.09090909090909091 0.09090909090909091 0.09090909090909091 0.09090909090909091 
0.09090909090909091 0.09090909090909091 0.09090909090909091 0.09090909090909091 0.09090909090909091 0.09090909090909091 0.09090909090909091 0.09090909090909091 0.09090909090909091 0.09090909090909091 0.09090909090909091 
0.08333333333333333 0.08333333333333333 0.08333333333333333 0.08333333333333333 0.08333333333333333 0.08333333333333333 0.08333333333333333 0.16666666666666666 0.08333333333333333 0.08333333333333333 0.08333333333333333 
0.07142857142857142 0.07142857142857142 0.07142857142857142 0.07142857142857142 0.07142857142857142 0.07142857142857142 0.2857142857142857 0.07142857142857142 0.07142857142857142 0.07142857142857142 0.07142857142857142 
0.09090909090909091 0.09090909090909091 0.09090909090909091 0.09090909090909091 0.09090909090909091 0.09090909090909091 0.09090909090909091 0.09090909090909091 0.09090909090909091 0.09090909090909091 0.09090909090909091 
0.07142857142857142 0.07142857142857142 0.07142857142857142 0.07142857142857142 0.07142857142857142 0.07142857142857142 0.07142857142857142 0.07142857142857142 0.07142857142857142 0.07142857142857142 0.2857142857142857 
0.09090909090909091 0.09090909090909091 0.09090909090909091 0.09090909090909091 0.09090909090909091 0.09090909090909091 0.09090909090909091 0.09090909090909091 0.09090909090909091 0.09090909090909091 0.09090909090909091 
0.09090909090909091 0.09090909090909091 0.09090909090909091 0.09090909090909091 0.09090909090909091 0.09090909090909091 0.09090909090909091 0.09090909090909091 0.09090909090909091 0.09090909090909091 0.09090909090909091 
0.09090909090909091 0.09090909090909091 0.09090909090909091 0.09090909090909091 0.09090909090909091 0.09090909090909091 0.09090909090909091 0.09090909090909091 0.09090909090909091 0.09090909090909091 0.09090909090909091 
0.09090909090909091 0.09090909090909091 0.09090909090909091 0.09090909090909091 0.09090909090909091 0.09090909090909091 0.09090909090909091 0.09090909090909091 0.09090909090909091 0.09090909090909091 0.09090909090909091 
0.0625 0.0625 0.0625 0.0625 0.0625 0.0625 0.3125 0.0625 0.0625 0.0625 0.125 
0.09090909090909091 0.09090909090909091 0.09090909090909091 0.09090909090909091 0.09090909090909091 0.09090909090909091 0.09090909090909091 0.09090909090909091 0.09090909090909091 0.09090909090909091 0.09090909090909091 
0.07692307692307693 0.07692307692307693 0.07692307692307693 0.07692307692307693 0.07692307692307693 0.07692307692307693 0.07692307692307693 0.07692307692307693 0.07692307692307693 0.07692307692307693 0.23076923076923078 
0.09090909090909091 0.09090909090909091 0.09090909090909091 0.09090909090909091 0.09090909090909091 0.09090909090909091 0.09090909090909091 0.09090909090909091 0.09090909090909091 0.09090909090909091 0.09090909090909091 
0.08333333333333333 0.08333333333333333 0.08333333333333333 0.08333333333333333 0.08333333333333333 0.08333333333333333 0.08333333333333333 0.08333333333333333 0.08333333333333333 0.08333333333333333 0.16666666666666666 
0.09090909090909091 0.09090909090909091 0.09090909090909091 0.09090909090909091 0.09090909090909091 0.09090909090909091 0.09090909090909091 0.09090909090909091 0.09090909090909091 0.09090909090909091 0.09090909090909091 
0.23076923076923078 0.07692307692307693 0.07692307692307693 0.07692307692307693 0.07692307692307693 0.07692307692307693 0.07692307692307693 0.07692307692307693 0.07692307692307693 0.07692307692307693 0.07692307692307693 
0.16666666666666666 0.08333333333333333 0.08333333333333333 0.08333333333333333 0.08333333333333333 0.08333333333333333 0.08333333333333333 0.08333333333333333 0.08333333333333333 0.08333333333333333 0.08333333333333333 
0.09090909090909091 0.09090909090909091 0.09090909090909091 0.09090909090909091 0.09090909090909091 0.09090909090909091 0.09090909090909091 0.09090909090909091 0.09090909090909091 0.09090909090909091 0.09090909090909091 
0.09090909090909091 0.09090909090909091 0.09090909090909091 0.09090909090909091 0.09090909090909091 0.09090909090909091 0.09090909090909091 0.09090909090909091 0.09090909090909091 0.09090909090909091 0.09090909090909091 
0.09090909090909091 0.09090909090909091 0.09090909090909091 0.09090909090909091 0.09090909090909091 0.09090909090909091 0.09090909090909091 0.09090909090909091 0.09090909090909091 0.09090909090909091 0.09090909090909091 
0.09090909090909091 0.09090909090909091 0.09090909090909091 0.09090909090909091 0.09090909090909091 0.09090909090909091 0.09090909090909091 0.09090909090909091 0.09090909090909091 0.09090909090909091 0.09090909090909091 
0.08333333333333333 0.08333333333333333 0.08333333333333333 0.16666666666666666 0.08333333333333333 0.08333333333333333 0.08333333333333333 0.08333333333333333 0.08333333333333333 0.08333333333333333 0.08333333333333333 
0.4444444444444444 0.05555555555555555 0.05555555555555555 0.05555555555555555 0.05555555555555555 0.05555555555555555 0.05555555555555555 0.05555555555555555 0.05555555555555555 0.05555555555555555 0.05555555555555555 
0.09090909090909091 0.09090909090909091 0.09090909090909091 0.09090909090909091 0.09090909090909091 0.09090909090909091 0.09090909090909091 0.09090909090909091 0.09090909090909091 0.09090909090909091 0.09090909090909091 
0.09090909090909091 0.09090909090909091 0.09090909090909091 0.09090909090909091 0.09090909090909091 0.09090909090909091 0.09090909090909091 0.09090909090909091 0.09090909090909091 0.09090909090909091 0.09090909090909091 
0.09090909090909091 0.09090909090909091 0.09090909090909091 0.09090909090909091 0.09090909090909091 0.09090909090909091 0.09090909090909091 0.09090909090909091 0.09090909090909091 0.09090909090909091 0.09090909090909091 
0.09090909090909091 0.09090909090909091 0.09090909090909091 0.09090909090909091 0.09090909090909091 0.09090909090909091 0.09090909090909091 0.09090909090909091 0.09090909090909091 0.09090909090909091 0.09090909090909091 
0.08333333333333333 0.08333333333333333 0.08333333333333333 0.08333333333333333 0.16666666666666666 0.08333333333333333 0.08333333333333333 0.08333333333333333 0.08333333333333333 0.08333333333333333 0.08333333333333333 
0.09090909090909091 0.09090909090909091 0.09090909090909091 0.09090909090909091 0.09090909090909091 0.09090909090909091 0.09090909090909091 0.09090909090909091 0.09090909090909091 0.09090909090909091 0.09090909090909091 
0.21428571428571427 0.07142857142857142 0.14285714285714285 0.07142857142857142 0.07142857142857142 0.07142857142857142 0.07142857142857142 0.07142857142857142 0.07142857142857142 0.07142857142857142 0.07142857142857142 
0.35 0.05 0.05 0.05 0.2 0.05 0.05 0.05 0.05 0.05 0.05 
0.09090909090909091 0.09090909090909091 0.09090909090909091 0.09090909090909091 0.09090909090909091 0.09090909090909091 0.09090909090909091 0.09090909090909091 0.09090909090909091 0.09090909090909091 0.09090909090909091 
0.09090909090909091 0.09090909090909091 0.09090909090909091 0.09090909090909091 0.09090909090909091 0.09090909090909091 0.09090909090909091 0.09090909090909091 0.09090909090909091 0.09090909090909091 0.09090909090909091 
0.09090909090909091 0.09090909090909091 0.09090909090909091 0.09090909090909091 0.09090909090909091 0.09090909090909091 0.09090909090909091 0.09090909090909091 0.09090909090909091 0.09090909090909091 0.09090909090909091 
0.16666666666666666 0.08333333333333333 0.08333333333333333 0.08333333333333333 0.08333333333333333 0.08333333333333333 0.08333333333333333 0.08333333333333333 0.08333333333333333 0.08333333333333333 0.08333333333333333 
0.09090909090909091 0.09090909090909091 0.09090909090909091 0.09090909090909091 0.09090909090909091 0.09090909090909091 0.09090909090909091 0.09090909090909091 0.09090909090909091 0.09090909090909091 0.09090909090909091 
0.21428571428571427 0.07142857142857142 0.14285714285714285 0.07142857142857142 0.07142857142857142 0.07142857142857142 0.07142857142857142 0.07142857142857142 0.07142857142857142 0.07142857142857142 0.07142857142857142 
0.08333333333333333 0.08333333333333333 0.16666666666666666 0.08333333333333333 0.08333333333333333 0.08333333333333333 0.08333333333333333 0.08333333333333333 0.08333333333333333 0.08333333333333333 0.08333333333333333 
0.09090909090909091 0.09090909090909091 0.09090909090909091 0.09090909090909091 0.09090909090909091 0.09090909090909091 0.09090909090909091 0.09090909090909091 0.09090909090909091 0.09090909090909091 0.09090909090909091 
0.09090909090909091 0.09090909090909091 0.09090909090909091 0.09090909090909091 0.09090909090909091 0.09090909090909091 0.09090909090909091 0.09090909090909091 0.09090909090909091 0.09090909090909091 0.09090909090909091 
0.09090909090909091 0.09090909090909091 0.09090909090909091 0.09090909090909091 0.09090909090909091 0.09090909090909091 0.09090909090909091 0.09090909090909091 0.09090909090909091 0.09090909090909091 0.09090909090909091 
0.09090909090909091 0.09090909090909091 0.09090909090909091 0.09090909090909091 0.09090909090909091 0.09090909090909091 0.09090909090909091 0.09090909090909091 0.09090909090909091 0.09090909090909091 0.09090909090909091 
0.08333333333333333 0.08333333333333333 0.08333333333333333 0.08333333333333333 0.08333333333333333 0.08333333333333333 0.08333333333333333 0.08333333333333333 0.08333333333333333 0.08333333333333333 0.16666666666666666 
0.09090909090909091 0.09090909090909091 0.09090909090909091 0.09090909090909091 0.09090909090909091 0.09090909090909091 0.09090909090909091 0.09090909090909091 0.09090909090909091 0.09090909090909091 0.09090909090909091 
0.07692307692307693 0.07692307692307693 0.07692307692307693 0.07692307692307693 0.07692307692307693 0.07692307692307693 0.07692307692307693 0.07692307692307693 0.07692307692307693 0.07692307692307693 0.23076923076923078 
0.09090909090909091 0.09090909090909091 0.09090909090909091 0.09090909090909091 0.09090909090909091 0.09090909090909091 0.09090909090909091 0.09090909090909091 0.09090909090909091 0.09090909090909091 0.09090909090909091 
0.09090909090909091 0.09090909090909091 0.09090909090909091 0.09090909090909091 0.09090909090909091 0.09090909090909091 0.09090909090909091 0.09090909090909091 0.09090909090909091 0.09090909090909091 0.09090909090909091 
0.09090909090909091 0.09090909090909091 0.09090909090909091 0.09090909090909091 0.09090909090909091 0.09090909090909091 0.09090909090909091 0.09090909090909091 0.09090909090909091 0.09090909090909091 0.09090909090909091 
0.09090909090909091 0.09090909090909091 0.09090909090909091 0.09090909090909091 0.09090909090909091 0.09090909090909091 0.09090909090909091 0.09090909090909091 0.09090909090909091 0.09090909090909091 0.09090909090909091 
0.06666666666666667 0.3333333333333333 0.06666666666666667 0.06666666666666667 0.06666666666666667 0.06666666666666667 0.06666666666666667 0.06666666666666667 0.06666666666666667 0.06666666666666667 0.06666666666666667 
0.09090909090909091 0.09090909090909091 0.09090909090909091 0.09090909090909091 0.09090909090909091 0.09090909090909091 0.09090909090909091 0.09090909090909091 0.09090909090909091 0.09090909090909091 0.09090909090909091 
0.3 0.05 0.05 0.05 0.15 0.05 0.05 0.15 0.05 0.05 0.05 
0.06666666666666667 0.06666666666666667 0.06666666666666667 0.06666666666666667 0.06666666666666667 0.06666666666666667 0.06666666666666667 0.3333333333333333 0.06666666666666667 0.06666666666666667 0.06666666666666667 
0.09090909090909091 0.09090909090909091 0.09090909090909091 0.09090909090909091 0.09090909090909091 0.09090909090909091 0.09090909090909091 0.09090909090909091 0.09090909090909091 0.09090909090909091 0.09090909090909091 
0.09090909090909091 0.09090909090909091 0.09090909090909091 0.09090909090909091 0.09090909090909091 0.09090909090909091 0.09090909090909091 0.09090909090909091 0.09090909090909091 0.09090909090909091 0.09090909090909091 
0.09090909090909091 0.09090909090909091 0.09090909090909091 0.09090909090909091 0.09090909090909091 0.09090909090909091 0.09090909090909091 0.09090909090909091 0.09090909090909091 0.09090909090909091 0.09090909090909091 
0.09090909090909091 0.09090909090909091 0.09090909090909091 0.09090909090909091 0.09090909090909091 0.09090909090909091 0.09090909090909091 0.09090909090909091 0.09090909090909091 0.09090909090909091 0.09090909090909091 
0.08333333333333333 0.08333333333333333 0.08333333333333333 0.08333333333333333 0.08333333333333333 0.08333333333333333 0.08333333333333333 0.08333333333333333 0.16666666666666666 0.08333333333333333 0.08333333333333333 
0.09090909090909091 0.09090909090909091 0.09090909090909091 0.09090909090909091 0.09090909090909091 0.09090909090909091 0.09090909090909091 0.09090909090909091 0.09090909090909091 0.09090909090909091 0.09090909090909091 
0.07692307692307693 0.07692307692307693 0.07692307692307693 0.07692307692307693 0.07692307692307693 0.07692307692307693 0.07692307692307693 0.07692307692307693 0.15384615384615385 0.07692307692307693 0.15384615384615385 
0.09090909090909091 0.09090909090909091 0.09090909090909091 0.09090909090909091 0.09090909090909091 0.09090909090909091 0.09090909090909091 0.09090909090909091 0.09090909090909091 0.09090909090909091 0.09090909090909091 
0.09090909090909091 0.09090909090909091 0.09090909090909091 0.09090909090909091 0.09090909090909091 0.09090909090909091 0.09090909090909091 0.09090909090909091 0.09090909090909091 0.09090909090909091 0.09090909090909091 
0.0625 0.0625 0.0625 0.0625 0.0625 0.0625 0.0625 0.0625 0.0625 0.0625 0.375 
0.09090909090909091 0.09090909090909091 0.09090909090909091 0.09090909090909091 0.09090909090909091 0.09090909090909091 0.09090909090909091 0.09090909090909091 0.09090909090909091 0.09090909090909091 0.09090909090909091 
0.09090909090909091 0.09090909090909091 0.09090909090909091 0.09090909090909091 0.09090909090909091 0.09090909090909091 0.09090909090909091 0.09090909090909091 0.09090909090909091 0.09090909090909091 0.09090909090909091 
0.08333333333333333 0.08333333333333333 0.08333333333333333 0.08333333333333333 0.08333333333333333 0.08333333333333333 0.08333333333333333 0.16666666666666666 0.08333333333333333 0.08333333333333333 0.08333333333333333 
0.09090909090909091 0.09090909090909091 0.09090909090909091 0.09090909090909091 0.09090909090909091 0.09090909090909091 0.09090909090909091 0.09090909090909091 0.09090909090909091 0.09090909090909091 0.09090909090909091 
0.09090909090909091 0.09090909090909091 0.09090909090909091 0.09090909090909091 0.09090909090909091 0.09090909090909091 0.09090909090909091 0.09090909090909091 0.09090909090909091 0.09090909090909091 0.09090909090909091 
0.09090909090909091 0.09090909090909091 0.09090909090909091 0.09090909090909091 0.09090909090909091 0.09090909090909091 0.09090909090909091 0.09090909090909091 0.09090909090909091 0.09090909090909091 0.09090909090909091 
0.09090909090909091 0.09090909090909091 0.09090909090909091 0.09090909090909091 0.09090909090909091 0.09090909090909091 0.09090909090909091 0.09090909090909091 0.09090909090909091 0.09090909090909091 0.09090909090909091 
0.0625 0.0625 0.0625 0.375 0.0625 0.0625 0.0625 0.0625 0.0625 0.0625 0.0625 
0.2631578947368421 0.05263157894736842 0.2631578947368421 0.05263157894736842 0.05263157894736842 0.05263157894736842 0.05263157894736842 0.05263157894736842 0.05263157894736842 0.05263157894736842 0.05263157894736842 
0.09090909090909091 0.09090909090909091 0.09090909090909091 0.09090909090909091 0.09090909090909091 0.09090909090909091 0.09090909090909091 0.09090909090909091 0.09090909090909091 0.09090909090909091 0.09090909090909091 
0.09090909090909091 0.09090909090909091 0.09090909090909091 0.09090909090909091 0.09090909090909091 0.09090909090909091 0.09090909090909091 0.09090909090909091 0.09090909090909091 0.09090909090909091 0.09090909090909091 
0.09090909090909091 0.09090909090909091 0.09090909090909091 0.09090909090909091 0.09090909090909091 0.09090909090909091 0.09090909090909091 0.09090909090909091 0.09090909090909091 0.09090909090909091 0.09090909090909091 
0.09090909090909091 0.09090909090909091 0.09090909090909091 0.09090909090909091 0.09090909090909091 0.09090909090909091 0.09090909090909091 0.09090909090909091 0.09090909090909091 0.09090909090909091 0.09090909090909091 
0.09090909090909091 0.09090909090909091 0.09090909090909091 0.09090909090909091 0.09090909090909091 0.09090909090909091 0.09090909090909091 0.09090909090909091 0.09090909090909091 0.09090909090909091 0.09090909090909091 
0.07142857142857142 0.07142857142857142 0.21428571428571427 0.07142857142857142 0.07142857142857142 0.07142857142857142 0.07142857142857142 0.14285714285714285 0.07142857142857142 0.07142857142857142 0.07142857142857142 
0.09090909090909091 0.09090909090909091 0.09090909090909091 0.09090909090909091 0.09090909090909091 0.09090909090909091 0.09090909090909091 0.09090909090909091 0.09090909090909091 0.09090909090909091 0.09090909090909091 
0.391304347826087 0.043478260869565216 0.13043478260869565 0.043478260869565216 0.13043478260869565 0.043478260869565216 0.043478260869565216 0.043478260869565216 0.043478260869565216 0.043478260869565216 0.043478260869565216 
0.07692307692307693 0.07692307692307693 0.07692307692307693 0.07692307692307693 0.07692307692307693 0.07692307692307693 0.07692307692307693 0.07692307692307693 0.23076923076923078 0.07692307692307693 0.07692307692307693 
0.08333333333333333 0.08333333333333333 0.08333333333333333 0.08333333333333333 0.08333333333333333 0.08333333333333333 0.08333333333333333 0.08333333333333333 0.16666666666666666 0.08333333333333333 0.08333333333333333 
0.09090909090909091 0.09090909090909091 0.09090909090909091 0.09090909090909091 0.09090909090909091 0.09090909090909091 0.09090909090909091 0.09090909090909091 0.09090909090909091 0.09090909090909091 0.09090909090909091 
0.09090909090909091 0.09090909090909091 0.09090909090909091 0.09090909090909091 0.09090909090909091 0.09090909090909091 0.09090909090909091 0.09090909090909091 0.09090909090909091 0.09090909090909091 0.09090909090909091 
0.09090909090909091 0.09090909090909091 0.09090909090909091 0.09090909090909091 0.09090909090909091 0.09090909090909091 0.09090909090909091 0.09090909090909091 0.09090909090909091 0.09090909090909091 0.09090909090909091 
0.09090909090909091 0.09090909090909091 0.09090909090909091 0.09090909090909091 0.09090909090909091 0.09090909090909091 0.09090909090909091 0.09090909090909091 0.09090909090909091 0.09090909090909091 0.09090909090909091 
0.09090909090909091 0.09090909090909091 0.09090909090909091 0.09090909090909091 0.09090909090909091 0.09090909090909091 0.09090909090909091 0.09090909090909091 0.09090909090909091 0.09090909090909091 0.09090909090909091 
0.09090909090909091 0.09090909090909091 0.09090909090909091 0.09090909090909091 0.09090909090909091 0.09090909090909091 0.09090909090909091 0.09090909090909091 0.09090909090909091 0.09090909090909091 0.09090909090909091 
0.08333333333333333 0.08333333333333333 0.08333333333333333 0.08333333333333333 0.08333333333333333 0.08333333333333333 0.08333333333333333 0.08333333333333333 0.16666666666666666 0.08333333333333333 0.08333333333333333 
0.09090909090909091 0.09090909090909091 0.09090909090909091 0.09090909090909091 0.09090909090909091 0.09090909090909091 0.09090909090909091 0.09090909090909091 0.09090909090909091 0.09090909090909091 0.09090909090909091 
0.047619047619047616 0.047619047619047616 0.047619047619047616 0.047619047619047616 0.047619047619047616 0.047619047619047616 0.047619047619047616 0.047619047619047616 0.3333333333333333 0.047619047619047616 0.23809523809523808 
0.08333333333333333 0.08333333333333333 0.08333333333333333 0.16666666666666666 0.08333333333333333 0.08333333333333333 0.08333333333333333 0.08333333333333333 0.08333333333333333 0.08333333333333333 0.08333333333333333 
0.375 0.0625 0.0625 0.0625 0.0625 0.0625 0.0625 0.0625 0.0625 0.0625 0.0625 
0.09090909090909091 0.09090909090909091 0.09090909090909091 0.09090909090909091 0.09090909090909091 0.09090909090909091 0.09090909090909091 0.09090909090909091 0.09090909090909091 0.09090909090909091 0.09090909090909091 
0.09090909090909091 0.09090909090909091 0.09090909090909091 0.09090909090909091 0.09090909090909091 0.09090909090909091 0.09090909090909091 0.09090909090909091 0.09090909090909091 0.09090909090909091 0.09090909090909091 
0.09090909090909091 0.09090909090909091 0.09090909090909091 0.09090909090909091 0.09090909090909091 0.09090909090909091 0.09090909090909091 0.09090909090909091 0.09090909090909091 0.09090909090909091 0.09090909090909091 
0.09090909090909091 0.09090909090909091 0.09090909090909091 0.09090909090909091 0.09090909090909091 0.09090909090909091 0.09090909090909091 0.09090909090909091 0.09090909090909091 0.09090909090909091 0.09090909090909091 
0.08333333333333333 0.08333333333333333 0.08333333333333333 0.08333333333333333 0.16666666666666666 0.08333333333333333 0.08333333333333333 0.08333333333333333 0.08333333333333333 0.08333333333333333 0.08333333333333333 
0.08333333333333333 0.16666666666666666 0.08333333333333333 0.08333333333333333 0.08333333333333333 0.08333333333333333 0.08333333333333333 0.08333333333333333 0.08333333333333333 0.08333333333333333 0.08333333333333333 
0.06666666666666667 0.26666666666666666 0.06666666666666667 0.06666666666666667 0.06666666666666667 0.06666666666666667 0.13333333333333333 0.06666666666666667 0.06666666666666667 0.06666666666666667 0.06666666666666667 
0.09090909090909091 0.09090909090909091 0.09090909090909091 0.09090909090909091 0.09090909090909091 0.09090909090909091 0.09090909090909091 0.09090909090909091 0.09090909090909091 0.09090909090909091 0.09090909090909091 
0.09090909090909091 0.09090909090909091 0.09090909090909091 0.09090909090909091 0.09090909090909091 0.09090909090909091 0.09090909090909091 0.09090909090909091 0.09090909090909091 0.09090909090909091 0.09090909090909091 
0.09090909090909091 0.09090909090909091 0.09090909090909091 0.09090909090909091 0.09090909090909091 0.09090909090909091 0.09090909090909091 0.09090909090909091 0.09090909090909091 0.09090909090909091 0.09090909090909091 
0.09090909090909091 0.09090909090909091 0.09090909090909091 0.09090909090909091 0.09090909090909091 0.09090909090909091 0.09090909090909091 0.09090909090909091 0.09090909090909091 0.09090909090909091 0.09090909090909091 
0.09090909090909091 0.09090909090909091 0.09090909090909091 0.09090909090909091 0.09090909090909091 0.09090909090909091 0.09090909090909091 0.09090909090909091 0.09090909090909091 0.09090909090909091 0.09090909090909091 
0.09090909090909091 0.09090909090909091 0.09090909090909091 0.09090909090909091 0.09090909090909091 0.09090909090909091 0.09090909090909091 0.09090909090909091 0.09090909090909091 0.09090909090909091 0.09090909090909091 
0.08333333333333333 0.08333333333333333 0.08333333333333333 0.08333333333333333 0.08333333333333333 0.08333333333333333 0.16666666666666666 0.08333333333333333 0.08333333333333333 0.08333333333333333 0.08333333333333333 
0.09090909090909091 0.09090909090909091 0.09090909090909091 0.09090909090909091 0.09090909090909091 0.09090909090909091 0.09090909090909091 0.09090909090909091 0.09090909090909091 0.09090909090909091 0.09090909090909091 
0.08333333333333333 0.08333333333333333 0.08333333333333333 0.08333333333333333 0.08333333333333333 0.08333333333333333 0.08333333333333333 0.08333333333333333 0.16666666666666666 0.08333333333333333 0.08333333333333333 
0.09090909090909091 0.09090909090909091 0.09090909090909091 0.09090909090909091 0.09090909090909091 0.09090909090909091 0.09090909090909091 0.09090909090909091 0.09090909090909091 0.09090909090909091 0.09090909090909091 
0.09090909090909091 0.09090909090909091 0.09090909090909091 0.09090909090909091 0.09090909090909091 0.09090909090909091 0.09090909090909091 0.09090909090909091 0.09090909090909091 0.09090909090909091 0.09090909090909091 
0.09090909090909091 0.09090909090909091 0.09090909090909091 0.09090909090909091 0.09090909090909091 0.09090909090909091 0.09090909090909091 0.09090909090909091 0.09090909090909091 0.09090909090909091 0.09090909090909091 
0.09090909090909091 0.09090909090909091 0.09090909090909091 0.09090909090909091 0.09090909090909091 0.09090909090909091 0.09090909090909091 0.09090909090909091 0.09090909090909091 0.09090909090909091 0.09090909090909091 
0.09090909090909091 0.09090909090909091 0.09090909090909091 0.09090909090909091 0.09090909090909091 0.09090909090909091 0.09090909090909091 0.09090909090909091 0.09090909090909091 0.09090909090909091 0.09090909090909091 
0.09090909090909091 0.09090909090909091 0.09090909090909091 0.09090909090909091 0.09090909090909091 0.09090909090909091 0.09090909090909091 0.09090909090909091 0.09090909090909091 0.09090909090909091 0.09090909090909091 
0.09090909090909091 0.09090909090909091 0.09090909090909091 0.09090909090909091 0.09090909090909091 0.09090909090909091 0.09090909090909091 0.09090909090909091 0.09090909090909091 0.09090909090909091 0.09090909090909091 
0.058823529411764705 0.058823529411764705 0.058823529411764705 0.058823529411764705 0.058823529411764705 0.058823529411764705 0.058823529411764705 0.058823529411764705 0.4117647058823529 0.058823529411764705 0.058823529411764705 
0.09090909090909091 0.09090909090909091 0.09090909090909091 0.09090909090909091 0.09090909090909091 0.09090909090909091 0.09090909090909091 0.09090909090909091 0.09090909090909091 0.09090909090909091 0.09090909090909091 
0.09090909090909091 0.09090909090909091 0.09090909090909091 0.09090909090909091 0.09090909090909091 0.09090909090909091 0.09090909090909091 0.09090909090909091 0.09090909090909091 0.09090909090909091 0.09090909090909091 
0.09090909090909091 0.09090909090909091 0.09090909090909091 0.09090909090909091 0.09090909090909091 0.09090909090909091 0.09090909090909091 0.09090909090909091 0.09090909090909091 0.09090909090909091 0.09090909090909091 
0.09090909090909091 0.09090909090909091 0.09090909090909091 0.09090909090909091 0.09090909090909091 0.09090909090909091 0.09090909090909091 0.09090909090909091 0.09090909090909091 0.09090909090909091 0.09090909090909091 
0.15 0.05 0.3 0.05 0.15 0.05 0.05 0.05 0.05 0.05 0.05 
0.07692307692307693 0.07692307692307693 0.07692307692307693 0.07692307692307693 0.23076923076923078 0.07692307692307693 0.07692307692307693 0.07692307692307693 0.07692307692307693 0.07692307692307693 0.07692307692307693 
0.16666666666666666 0.08333333333333333 0.08333333333333333 0.08333333333333333 0.08333333333333333 0.08333333333333333 0.08333333333333333 0.08333333333333333 0.08333333333333333 0.08333333333333333 0.08333333333333333 
0.09090909090909091 0.09090909090909091 0.09090909090909091 0.09090909090909091 0.09090909090909091 0.09090909090909091 0.09090909090909091 0.09090909090909091 0.09090909090909091 0.09090909090909091 0.09090909090909091 
0.09090909090909091 0.09090909090909091 0.09090909090909091 0.09090909090909091 0.09090909090909091 0.09090909090909091 0.09090909090909091 0.09090909090909091 0.09090909090909091 0.09090909090909091 0.09090909090909091 
0.09090909090909091 0.09090909090909091 0.09090909090909091 0.09090909090909091 0.09090909090909091 0.09090909090909091 0.09090909090909091 0.09090909090909091 0.09090909090909091 0.09090909090909091 0.09090909090909091 
0.05555555555555555 0.05555555555555555 0.05555555555555555 0.05555555555555555 0.05555555555555555 0.05555555555555555 0.3333333333333333 0.05555555555555555 0.16666666666666666 0.05555555555555555 0.05555555555555555 
0.5 0.03333333333333333 0.03333333333333333 0.03333333333333333 0.03333333333333333 0.1 0.06666666666666667 0.03333333333333333 0.03333333333333333 0.1 0.03333333333333333 
0.07142857142857142 0.07142857142857142 0.07142857142857142 0.07142857142857142 0.07142857142857142 0.2857142857142857 0.07142857142857142 0.07142857142857142 0.07142857142857142 0.07142857142857142 0.07142857142857142 
0.09090909090909091 0.09090909090909091 0.09090909090909091 0.09090909090909091 0.09090909090909091 0.09090909090909091 0.09090909090909091 0.09090909090909091 0.09090909090909091 0.09090909090909091 0.09090909090909091 
0.09090909090909091 0.09090909090909091 0.09090909090909091 0.09090909090909091 0.09090909090909091 0.09090909090909091 0.09090909090909091 0.09090909090909091 0.09090909090909091 0.09090909090909091 0.09090909090909091 
0.07142857142857142 0.07142857142857142 0.2857142857142857 0.07142857142857142 0.07142857142857142 0.07142857142857142 0.07142857142857142 0.07142857142857142 0.07142857142857142 0.07142857142857142 0.07142857142857142 
0.09090909090909091 0.09090909090909091 0.09090909090909091 0.09090909090909091 0.09090909090909091 0.09090909090909091 0.09090909090909091 0.09090909090909091 0.09090909090909091 0.09090909090909091 0.09090909090909091 
0.16666666666666666 0.08333333333333333 0.08333333333333333 0.08333333333333333 0.08333333333333333 0.08333333333333333 0.08333333333333333 0.08333333333333333 0.08333333333333333 0.08333333333333333 0.08333333333333333 
0.09090909090909091 0.09090909090909091 0.09090909090909091 0.09090909090909091 0.09090909090909091 0.09090909090909091 0.09090909090909091 0.09090909090909091 0.09090909090909091 0.09090909090909091 0.09090909090909091 
0.07142857142857142 0.07142857142857142 0.07142857142857142 0.07142857142857142 0.07142857142857142 0.07142857142857142 0.07142857142857142 0.07142857142857142 0.2857142857142857 0.07142857142857142 0.07142857142857142 
0.10526315789473684 0.05263157894736842 0.42105263157894735 0.05263157894736842 0.05263157894736842 0.05263157894736842 0.05263157894736842 0.05263157894736842 0.05263157894736842 0.05263157894736842 0.05263157894736842 
0.09090909090909091 0.09090909090909091 0.09090909090909091 0.09090909090909091 0.09090909090909091 0.09090909090909091 0.09090909090909091 0.09090909090909091 0.09090909090909091 0.09090909090909091 0.09090909090909091 
0.09090909090909091 0.09090909090909091 0.09090909090909091 0.09090909090909091 0.09090909090909091 0.09090909090909091 0.09090909090909091 0.09090909090909091 0.09090909090909091 0.09090909090909091 0.09090909090909091 
0.09090909090909091 0.09090909090909091 0.09090909090909091 0.09090909090909091 0.09090909090909091 0.09090909090909091 0.09090909090909091 0.09090909090909091 0.09090909090909091 0.09090909090909091 0.09090909090909091 
0.09090909090909091 0.09090909090909091 0.09090909090909091 0.09090909090909091 0.09090909090909091 0.09090909090909091 0.09090909090909091 0.09090909090909091 0.09090909090909091 0.09090909090909091 0.09090909090909091 
0.09090909090909091 0.09090909090909091 0.09090909090909091 0.09090909090909091 0.09090909090909091 0.09090909090909091 0.09090909090909091 0.09090909090909091 0.09090909090909091 0.09090909090909091 0.09090909090909091 
0.0625 0.0625 0.0625 0.0625 0.0625 0.0625 0.0625 0.0625 0.0625 0.375 0.0625 
0.09090909090909091 0.09090909090909091 0.09090909090909091 0.09090909090909091 0.09090909090909091 0.09090909090909091 0.09090909090909091 0.09090909090909091 0.09090909090909091 0.09090909090909091 0.09090909090909091 
0.07142857142857142 0.07142857142857142 0.07142857142857142 0.07142857142857142 0.07142857142857142 0.07142857142857142 0.07142857142857142 0.07142857142857142 0.07142857142857142 0.2857142857142857 0.07142857142857142 
0.07142857142857142 0.07142857142857142 0.07142857142857142 0.07142857142857142 0.07142857142857142 0.07142857142857142 0.07142857142857142 0.07142857142857142 0.07142857142857142 0.2857142857142857 0.07142857142857142 
</TABLE>
</DEFINITION>
<DEFINITION>
<FOR>width</FOR>
<GIVEN>length</GIVEN>
<GIVEN>make</GIVEN>
<TABLE>
0.3333333333333333 0.3333333333333333 0.3333333333333333 
0.3333333333333333 0.3333333333333333 0.3333333333333333 
0.3333333333333333 0.3333333333333333 0.3333333333333333 
0.6666666666666666 0.16666666666666666 0.16666666666666666 
0.8 0.1 0.1 
0.6666666666666666 0.25 0.08333333333333333 
0.6 0.2 0.2 
0.3333333333333333 0.3333333333333333 0.3333333333333333 
0.75 0.125 0.125 
0.3333333333333333 0.3333333333333333 0.3333333333333333 
0.3333333333333333 0.3333333333333333 0.3333333333333333 
0.2857142857142857 0.5714285714285714 0.14285714285714285 
0.8181818181818182 0.09090909090909091 0.09090909090909091 
0.3333333333333333 0.3333333333333333 0.3333333333333333 
0.75 0.125 0.125 
0.3333333333333333 0.3333333333333333 0.3333333333333333 
0.3333333333333333 0.3333333333333333 0.3333333333333333 
0.3333333333333333 0.3333333333333333 0.3333333333333333 
0.6666666666666666 0.16666666666666666 0.16666666666666666 
0.47058823529411764 0.47058823529411764 0.058823529411764705 
0.6 0.2 0.2 
0.3333333333333333 0.3333333333333333 0.3333333333333333 
0.6 0.2 0.2 
0.3333333333333333 0.3333333333333333 0.3333333333333333 
0.3333333333333333 0.3333333333333333 0.3333333333333333 
0.3333333333333333 0.3333333333333333 0.3333333333333333 
0.3333333333333333 0.3333333333333333 0.3333333333333333 
0.3333333333333333 0.3333333333333333 0.3333333333333333 
0.3333333333333333 0.3333333333333333 0.3333333333333333 
0.3333333333333333 0.3333333333333333 0.3333333333333333 
0.14285714285714285 0.7142857142857143 0.14285714285714285 
0.3333333333333333 0.3333333333333333 0.3333333333333333 
0.3333333333333333 0.3333333333333333 0.3333333333333333 
0.3333333333333333 0.3333333333333333 0.3333333333333333 
0.3333333333333333 0.3333333333333333 0.3333333333333333 
0.3333333333333333 0.3333333333333333 0.3333333333333333 
0.3333333333333333 0.3333333333333333 0.3333333333333333 
0.14285714285714285 0.5714285714285714 0.2857142857142857 
0.3333333333333333 0.3333333333333333 0.3333333333333333 
0.3333333333333333 0.3333333333333333 0.3333333333333333 
0.3333333333333333 0.3333333333333333 0.3333333333333333 
0.3333333333333333 0.3333333333333333 0.3333333333333333 
0.3333333333333333 0.3333333333333333 0.3333333333333333 
0.3333333333333333 0.3333333333333333 0.3333333333333333 
0.25 0.5 0.25 
0.3333333333333333 0.3333333333333333 0.3333333333333333 
0.3333333333333333 0.3333333333333333 0.3333333333333333 
0.3333333333333333 0.3333333333333333 0.3333333333333333 
0.3333333333333333 0.3333333333333333 0.3333333333333333 
0.25 0.5 0.25 
0.4 0.4 0.2 
0.3333333333333333 0.3333333333333333 0.3333333333333333 
0.3333333333333333 0.3333333333333333 0.3333333333333333 
0.3333333333333333 0.3333333333333333 0.3333333333333333 
0.3333333333333333 0.3333333333333333 0.3333333333333333 
0.14285714285714285 0.7142857142857143 0.14285714285714285 
0.42857142857142855 0.14285714285714285 0.42857142857142855 
0.3333333333333333 0.3333333333333333 0.3333333333333333 
0.3333333333333333 0.3333333333333333 0.3333333333333333 
0.3333333333333333 0.3333333333333333 0.3333333333333333 
0.3333333333333333 0.3333333333333333 0.3333333333333333 
0.3333333333333333 0.3333333333333333 0.3333333333333333 
0.125 0.75 0.125 
0.6666666666666666 0.16666666666666666 0.16666666666666666 
0.1 0.8 0.1 
0.3333333333333333 0.3333333333333333 0.3333333333333333 
0.3333333333333333 0.3333333333333333 0.3333333333333333 
0.3333333333333333 0.3333333333333333 0.3333333333333333 
0.3333333333333333 0.3333333333333333 0.3333333333333333 
0.3333333333333333 0.3333333333333333 0.3333333333333333 
0.25 0.5 0.25 
0.3333333333333333 0.3333333333333333 0.3333333333333333 
